0.039189965618195426,-0.04833960191038588,-0.0518079186967395,0.053202329829169524,0.09956694934490601,0.03459685036347463,0.08676768808893022,0.08653226397915091,-0.01920943229785507,0.041655656992760325,-0.02452008815047357,0.02919618554078666,0.04746709490915836,-0.07591976469157562,0.049020272106506814,0.06548848524995855,0.0054723861083654365,-0.06611133019749622,-0.08640701904638622,0.07901461006277294,0.09136981450274224,-0.006901912996535153,0.04738572658397278,0.08320341817235058,-0.0749632687287767,-0.003966397453606944,0.0286719747388459,0.05749183285105858,0.03462146782437538,-0.0157399959884335,0.1014555759874356,0.024873997592768926,0.03126887590536291,0.04418787529096246,0.0065177314381364045
-0.04187734639892235,-0.08141306770610009,-0.050303756680939796,0.05266106411294022,0.09889475916167181,0.03445956247689022,0.08444219150446823,0.0868260091344919,-0.02025290079362076,0.041923520439733755,-0.023391518518014187,0.02933706081608578,0.04820085755943407,-0.0752400766824438,0.047400813185961656,0.0635251022056079,0.0036178819642881848,-0.06981628028385052,-0.08873218447396045,0.07746105104611933,0.08970838319132737,-0.007994164948736558,0.04571997656075922,0.09645573563889688,-0.07421974085306801,-0.04090771155951434,0.027576886960541818,-0.12446545345568388,0.025280571631567106,-0.01329123299328641,0.11809544355878523,0.028396385201134612,0.018209145523099667,0.0569058293327297,-1.8768126153073197E-5
-0.049901838027140155,-0.08563250637291274,-0.0430930724206271,0.05465378078391495,0.09920518810814712,0.03434981081523571,0.08517814834761911,0.08839316383427047,-0.019313697845608477,0.042270340697986165,-0.022099828848764963,0.029382978363622685,0.04885230795727051,-0.07461898847403838,0.04673387925585087,0.06291082867192643,0.003231563798567038,-0.06833976436383865,-0.08920140835713666,0.0769902421477092,0.08848121202809194,-0.008651948736673446,0.04442171098439728,0.10923647462158503,-0.0712654945310919,-0.030809482036725247,0.027635103345324468,-0.16608906893722913,0.01949549948679109,-0.010665987798347548,0.13056093994455345,0.03246906452262765,0.02067492424455517,0.06400903088976226,-8.614122337687165E-4
-0.05232102896606688,-0.08737705157038278,-0.035594033012000335,0.05694716331369358,0.09955404632360182,0.03422242522395197,0.08621726933567579,0.09018416310536681,-0.018106145875642667,0.042656948137012186,-0.020693109685976627,0.02940237699605907,0.04950235452805371,-0.07399094228066593,0.04630139470968065,0.06267699202573242,0.0032871254862360186,-0.06659836688745314,-0.08946697573596663,0.07681690711835529,0.08734331968030298,-0.00931656858173376,0.043171303860611875,0.12143062357194279,-0.0678066424435306,-0.01962179184087757,0.027934802123763605,-0.19853370673515985,0.013594927270617093,-0.0078803384206297,0.1419840510984009,0.036824838937259685,0.02348734553130038,0.07093155300302705,-0.0012251766681940278
-0.05329714423596554,-0.08868902479451393,-0.028125751011616525,0.05931833913628692,0.09984365026024654,0.034036902005811165,0.08731329062055956,0.09203118953201672,-0.01684946326230235,0.04304282290240777,-0.019246030886134902,0.029413224916235336,0.0501499857256862,-0.07335918091714573,0.045831648554652035,0.06246292269574424,0.003392791592525736,-0.06511337150084322,-0.08974890843505394,0.0766366101245199,0.08618352872627456,-0.010232335804838628,0.04185652323538131,0.13163884400878792,-0.06458056637903735,-0.010473820103433559,0.02824950203251113,-0.2292241578915563,0.0075611023873192,-0.005052695647010443,0.15258340668743617,0.04119148645295175,0.026115509500573994,0.07791190074169346,-0.0015117631179925159
-0.05505253577260535,-0.09082621639242926,-0.02140302338629049,0.061453045231132215,0.10001703181699677,0.03378146947463306,0.08829165272688827,0.09371137960447935,-0.015737700587738032,0.0433933966370039,-0.017893107518187252,0.029418883161649808,0.050745129269152235,-0.07277515380636314,0.045144968607657654,0.06204051544191604,0.003283310670133644,-0.0641777098617528,-0.09020238448027863,0.0762313666788651,0.08493391097161979,-0.01146654979333793,0.04043677535260548,0.13919543184282002,-0.06214216037528902,-0.0045412571278619935,0.028403752528779084,-0.25845153409398464,0.001869191361981529,-0.0024287772402147518,0.1618174153151179,0.04519347226987927,0.028079978971064557,0.08461832193722718,-0.001974460084211618
-0.05748245773640366,-0.09354915370038591,-0.015367138924583608,0.06334133640126711,0.10013105195244013,0.033502217055546145,0.08916491498176085,0.09521659999373606,-0.014760774130451496,0.04371482312781555,-0.016654126252272403,0.029422323928528164,0.051286253836157696,-0.07224336425185725,0.04432921341955905,0.06147597492660156,0.003011120152657244,-0.06352860105351468,-0.0907595735188437,0.07567700089538827,0.08364385352796176,-0.01280716257025934,0.038986720824315896,0.14550673058548602,-0.06022778421265895,5.958552580940182E-6,0.028439069098962582,-0.2851954819525084,-0.00334161497488424,-3.216434176846067E-5,0.1701246952105949,0.04884940885821972,0.029646412563734757,0.09090589596014614,-0.0025598217047290398
-0.06044303478889119,-0.09665236355697003,-0.009988630093299604,0.06499068419455273,0.10021057709462718,0.03322153016654145,0.08993805155906452,0.0965479426098118,-0.013910629537304361,0.04400791552924293,-0.015536344738062273,0.029424583051465295,0.05177301049699442,-0.07176519024892156,0.04344634679242664,0.06082291247468046,0.0026238765354012024,-0.06305104148624353,-0.09137216184771857,0.07503050328351026,0.08235834883959013,-0.01415070850238364,0.03755995896553542,0.15108698585864508,-0.05869977430463925,0.003851668573017808,0.028386328155807387,-0.30928253812089895,-0.008030312819360596,0.00212951145577444,0.17763936807143654,0.05216070575724677,0.03091650590739689,0.09670059446879642,-0.003223436132078651
-0.06356922849411578,-0.09983483475909001,-0.005123777675410208,0.06645934103280861,0.10027707594376381,0.03295421501975545,0.0906374346000792,0.09774373556438283,-0.013152702463851819,0.04427799095183264,-0.014520442617753922,0.02942617787284345,0.05221498724151378,-0.07133152630890387,0.04256312073124236,0.060149228207020906,0.002191924828295255,-0.06264252951281174,-0.0919878341533767,0.0743614018343283,0.08111787823958057,-0.015428376996770864,0.036196452886778994,0.15630257939858472,-0.05739096051584592,0.0074807871699339125,0.028292038671609527,-0.3309693216921253,-0.012272496702986949,0.0040958977509811135,0.1845455198316765,0.055189316827261733,0.03202047245167978,0.10203199039781127,-0.00390237678174569
-0.0668864617553069,-0.1030978370440715,-7.352129012906963E-4,0.06776351408988647,0.10032672234400342,0.03269704284685403,0.09126375915499052,0.09881511704005594,-0.012481952253603159,0.0445253300785151,-0.01359745111877428,0.02942734891099501,0.052616277790657626,-0.07093805064026254,0.04168053460474848,0.059457498603143234,0.0017202539496664491,-0.062321555313288896,-0.09260693983865326,0.07367301357883779,0.07992391981748337,-0.016656387886280172,0.03489359125799944,0.1610445061837921,-0.05630100847071409,0.01070339661446817,0.028159373733292727,-0.3507467434783726,-0.01612153910572811,0.0058833870666897764,0.19085881600666596,0.0579511616317506,0.03294692963411613,0.10694721229417241,-0.0045967015479126405
-0.07030726979393115,-0.10637406053713591,0.0032386515602526892,0.06892701908642217,0.1003639285398138,0.03245170792238999,0.09182681480029883,0.0997788348525973,-0.011885471323479046,0.044752333470244605,-0.01275667445046049,0.029428231857366528,0.052981744470504126,-0.07057997145760812,0.04081209651381466,0.05876297045658111,0.001226331394284866,-0.06206657621300524,-0.09321891086242395,0.0729809935986133,0.07878218264806404,-0.017827137882111096,0.03365536652343271,0.16538819401892724,-0.055384813341851635,0.013602085832055922,0.028000506417256953,-0.3688431691967924,-0.019623728191456996,0.007512778609355327,0.196649354988145,0.060476275698529876,0.03373033076107966,0.11148320053746578,-0.005292442591360648
-0.07376052409249016,-0.10961400866340332,0.006853726906496892,0.06997110722272591,0.10039200060369326,0.03221886768353165,0.09233564140918699,0.10065011755390156,-0.011351739018090652,0.04496131573252603,-0.011987989396631727,0.029428909563691347,0.05331588084848302,-0.07025283939816163,0.03996675513964165,0.058076495203004785,7.232616858795648E-4,-0.0618611925216796,-0.0938166112470696,0.07229643806895703,0.07769498284440397,-0.018937773997264033,0.032482379665935535,0.16939293761384394,-0.054606188174073526,0.016239260605175092,0.027824865749020457,-0.38545941322915883,-0.022822295476179935,0.00900357106819743,0.20198011906218968,0.06279299866108139,0.03439928452747319,0.11567743631465248,-0.005979413754777216
-0.07719390843728378,-0.1127842172155584,0.010158532126987314,0.07091383800640857,0.10041335792178,0.031998520284699655,0.0927980610777018,0.10144211007921465,-0.010871005387407491,0.045154376031715245,-0.011282356018397647,0.02942943678287862,0.053622654637289296,-0.06995271873777809,0.03914988611176271,0.05740525335309779,2.2030824877159426E-4,-0.06169322930306605,-0.0943956339844167,0.07162668692736833,0.07666228074093137,-0.019988482178514115,0.031373041120858695,0.17310579175383417,-0.053936932457585886,0.01866172301298205,0.027639398639780925,-0.40077117623402936,-0.02575563000343935,0.010373104278522102,0.2069063159831438,0.06492667726033019,0.03497659143555581,0.11956540488736207,-0.0066507838149579565
-0.08057062482919748,-0.11586321050161597,0.013194659249271544,0.07177035445249516,0.10042980263888777,0.03179029553032965,0.09322072915005587,0.10216598675743825,-0.010435125912987267,0.045333382583692884,-0.010631869195738669,0.0294298523859347,0.05390551652912321,-0.06967618649939686,0.03836439059692466,0.05675376730260905,-2.761522167688057E-4,-0.06155349771042572,-0.09495347549938356,0.07097637454614476,0.07568256573457818,-0.020981145867579272,0.030324504575467,0.17656562660333378,-0.05335497017245223,0.020906157214863785,0.027449151046995635,-0.41493122460080045,-0.028457160843909955,0.011636520698292033,0.21147626305135847,0.06689959333958333,0.035480430948348726,0.12317961833414456,-0.007302212781689558
-0.08386664372270342,-0.11883873550160887,0.015997342895998367,0.07255320265173185,0.10044264958045014,0.03159359606518514,0.09360921152702241,0.10283112645141138,-0.010037392031414844,0.04549996886932653,-0.010029712038292067,0.029430184885818292,0.05416743283438536,-0.06942030118700376,0.03761137734724138,0.056124564595623566,-7.619740614552676E-4,-0.061435193298580895,-0.09548902536980862,0.07034811001920746,0.07475340140072886,-0.021918694826423186,0.029333202062647324,0.17980442565211954,-0.05284322872248797,0.02300092808411212,0.02725766534036333,-0.4280725646810965,-0.030955669461319658,0.012806872827022833,0.21573180535556902,0.06873105508722822,0.03592503793022449,0.12654933073968644,-0.00793126759420704
-0.08706834860726384,-0.12170569787141444,0.018596006964413585,0.07327262710370182,0.10045280504481811,0.03140767839177979,0.09396807077533671,0.10344528744496387,-0.009672375173857297,0.0456555366724463,-0.009470084790542918,0.029430455001882756,0.054410921161263344,-0.06918256661075176,0.03689063344572577,0.055518653292197295,-0.0012347585011455394,-0.06133352594420248,-0.09600221313642925,0.06974296040501987,0.07387179218324831,-0.022804729816272098,0.028395187104664696,0.18284778247781355,-0.05238885399985836,0.024966841802289072,0.027067274872046587,-0.4403110228568796,-0.03327567205711916,0.013895263058039198,0.21970859629080516,0.07043754096160174,0.036321186604295556,0.1297004878940315,-0.008536989698034592
-0.09016962223739171,-0.12446392277443763,0.021015107316477686,0.07393695844670488,0.1004608757088462,0.031231736074452506,0.09430102732259603,0.10401485755487476,-0.009335702736652868,0.04580128016300002,-0.00894808372041777,0.029430677576120837,0.054638106261468374,-0.06896087664057911,0.036201093927383465,0.054936009611924304,-0.001693344479693768,-0.06124519714110186,-0.09649364772821427,0.06916094406941607,0.07303450022985622,-0.023643133436170263,0.027506429185193502,0.18571620182982365,-0.05198223706827048,0.026819032250079086,0.026879428428490885,-0.4517469508890837,-0.035437930101405384,0.014911079576417234,0.22343684690716456,0.07203302615272063,0.03667693767552351,0.13265584875379335,-0.009119429492123401
-0.09316903493758402,-0.1271161124215428,0.02327510190713136,0.07455302821828584,0.10046727926065652,0.03106497066433614,0.09461114744316718,0.10454513267733904,-0.00902381444140986,0.045938220830751976,-0.008459553100817654,0.02943086327202395,0.054850786804312136,-0.06875344953300414,0.03554125056789705,0.054376011799545855,-0.0021373456317966113,-0.0611678644795995,-0.09696429986074778,0.06860146948069486,0.07223829028026946,-0.024437737901091657,0.02666303592906937,0.1884266618170822,-0.051616040737310444,0.028569137963082105,0.026694994638649137,-0.46246682030692465,-0.037460041756207874,0.015862283419032994,0.22694231840745582,0.07352940438624295,0.03699844504382907,0.13543526121702223,-0.009679223222106762
-0.09606784670548425,-0.12966644409011333,0.025393284772204917,0.07512651287816355,0.10047232012285433,0.030906631747323367,0.09490099730947364,0.10504055359437385,-0.008733764844694545,0.046067239219573064,-0.00800094843300727,0.029431019876185398,0.05505049614832058,-0.06855876779571023,0.034909421406620206,0.05383773511748396,-0.0025668258522664497,-0.061099772165123085,-0.09741529192997823,0.06806363393985025,0.07148007391476177,-0.025192138322550843,0.02586137386825115,0.19099370991659298,-0.05128448596468936,0.030226746725995294,0.026514479994301482,-0.47254504312590556,-0.0393570001785889,0.016755671220181487,0.23024718686432027,0.07493687163653003,0.03729055770693285,0.13805601626899,-0.010217303363791246
-0.098868809975689,-0.1321197610707648,0.027384416584858903,0.07566218663064174,0.10047623141065379,0.0307560317634146,0.09517275223739385,0.10550488371883296,-0.008463083048465637,0.04618909952545608,-0.007569225580749149,0.029431153190143635,0.05523855101077692,-0.06837552968055954,0.03430389798315732,0.05332012125865907,-0.0029821043715923244,-0.06103954373137589,-0.09784778301591587,0.06754639554217146,0.07075697456738993,-0.02590962480321337,0.025098111899580142,0.19343006820020442,-0.050982902677703945,0.031800111095723546,0.026338163229055404,-0.48204581397016694,-0.04114166026066286,0.017597086367903164,0.23337069146438888,0.07626422952674804,0.03755719806627797,0.14053320378277165,-0.010734732093119533
-0.10157548740621228,-0.13448113483064034,0.029261193008139848,0.0761641038774108,0.10047919720874086,0.030612547640824602,0.09542827347022713,0.1059413398651034,-0.008209674341534164,0.046304468423816005,-0.007161753941417154,0.029431267619999507,0.05541608928179736,-0.0682026113435128,0.03372301846057861,0.05282206961715418,-0.003383643691101277,-0.06098606988895975,-0.09826291136043573,0.06704866612821565,0.07006634710752911,-0.02659317639280217,0.024370222991402075,0.19574696674165692,-0.050707450409642356,0.033296474473502494,0.026166175416451828,-0.491024756618223,-0.04282511134529833,0.018391583620305744,0.23632961871130925,0.07751911992812852,0.03780159567415377,0.14288003183496317,-0.011232611651409858
-0.10419185518186273,-0.13675562793737572,0.031034602099996762,0.0766357345591061,0.10048136537920994,0.030475617115896195,0.09566916472367594,0.10635269087735745,-0.007971748520525589,0.046413929988829594,-0.006776247914919836,0.029431366568660827,0.055584099737433015,-0.06803903708812148,0.03316520208092452,0.05234248638708031,-0.003771983765891458,-0.06093844255042107,-0.09866176665364666,0.06656936149821834,0.06940577523019191,-0.027245479756560963,0.023674967468258167,0.19795435996995497,-0.05045493324865887,0.03472224097605635,0.02599854936413467,-0.499530305681367,-0.04441697339936855,0.01914355890668317,0.2391386806815022,0.07870821023670432,0.03802644131285992,0.1451081006205178,-0.011712036203256879
-0.10672206252927628,-0.13894816346976835,0.032714205575564224,0.07708006797345805,0.10048285589345686,0.03034473338760795,0.09589681585105864,0.1067413343180754,-0.0077477653655205325,0.04651799789209324,-0.006410711906373404,0.02943145270246221,0.05574344583317193,-0.06788395556333988,0.03262896407165793,0.05188031132983707,-0.0041477017393618506,-0.06089591099698848,-0.09904537732469246,0.06610742893637002,0.06877305895492387,-0.02786895540031808,0.023009869535850644,0.20006109399481894,-0.050222667943756204,0.03608309019146068,0.02583525171120375,-0.5076048401157625,-0.0459256345204998,0.019856853606141974,0.24181082216466965,0.07983734325275163,0.03823399665936161,0.14722763390271587,-0.012174065636178748
-0.10917028121494292,-0.14106345337119106,0.034308365007081794,0.07749969445289973,0.1004837668086769,0.03021943954535455,0.096112437626056,0.10710935746827821,-0.0075363918836528435,0.04661712555173181,-0.006063395576313193,0.02943152813684796,0.05589488504484152,-0.06773662044944531,0.032112920407342226,0.0514345322160628,-0.004511386512651639,-0.06085784992167685,-0.09941470563372772,0.0656618621792515,0.0681661981935296,-0.02846578473617288,0.02237269228567101,0.2020750484346601,-0.05000838484034523,0.03738407076843985,0.025676204700862106,-0.515285610133359,-0.0473584434773099,0.0205348395473932,0.24435747543479427,0.08091166036621593,0.03842617673152683,0.14924767388893004,-0.012619711455662734
-0.11154061038107853,-0.1431059613482656,0.03582442620386103,0.07789687070511728,0.1004841787918578,0.03009932328415227,0.0963170899348469,0.10745858657411557,-0.007336468147490302,0.04671171464382562,-0.00573275707626259,0.029431594568639242,0.056039084751150284,-0.06759637462579453,0.03161578710580948,0.051004192078337215,-0.004863622476623422,-0.06082373493445438,-0.09977064701675335,0.06523170904313326,0.06758337523991438,-0.029037935623009423,0.021761413439824524,0.20400325990157955,-0.04981015117451251,0.0386296820252553,0.025521301350638737,-0.5226054983692792,-0.04872186723377927,0.021180488968487707,0.24678877364968152,0.08193570373015999,0.03860461384282085,0.15117624538573876,-0.0130499297319512
-0.11383701720164244,-0.145079886913569,0.03726887080019169,0.07827357267064582,0.10048415862681749,0.029984012069859435,0.09651170485117494,0.10779062699897154,-0.007146979681139874,0.0468021222669427,-0.005417432636868653,0.02943165337213465,0.05617663536921496,-0.06746263709770507,0.03113637653143294,0.050588392092888575,-0.005204979185232095,-0.060793123367047563,-0.10011403181753394,0.06481607457758856,0.06702293756189034,-0.029587185659051773,0.021174202772540864,0.20585202960755247,-0.04962631067327527,0.03982394561266633,0.02537041616745374,-0.5295936488953233,-0.05002162077509933,0.021796432482854705,0.24911373039670195,0.08291350147654113,0.03877070805559631,0.1530204943254081,-0.013465618334945443
-0.1160633014330941,-0.14698916263071252,0.03864744166114605,0.0786315386336278,0.10048376195901909,0.029873168787501604,0.09669710564423094,0.1081068961996189,-0.006967034957886604,0.04688866698712534,-0.0051162112749608924,0.029431705670138683,0.05630806127815648,-0.06733489213952105,0.03067359210458561,0.050186291755741005,-0.005536004996820743,-0.0607656390914427,-0.1004456283480959,0.06441412144244585,0.0664833815561232,-0.030115143101768365,0.020609401545785343,0.2076270166361793,-0.04945543551049458,0.04097046787565148,0.025223412752588662,-0.5362759903478848,-0.05126277475877415,0.022385007356173225,0.25134039116104734,0.08384863907683061,0.03892566737772559,0.15478680493647154,-0.013867616824537856
-0.11822307610502382,-0.14883745957114702,0.039965247168937824,0.07897230461975492,0.1004830354532351,0.029766487857826436,0.09687402251626075,0.10840865097272977,-0.006795846943925174,0.04697163394965514,-0.004828013658616712,0.029431752387244572,0.05643382994668176,-0.06721268023320348,0.03022642225052712,0.049797107395421945,-0.005857223401430922,-0.06074096045675798,-0.10076614664107315,0.06402506857103174,0.06596333755935066,-0.030623265507508508,0.0200655040148867,0.20933331840616723,-0.049296287809858876,0.04207249361129555,0.025080149193699903,-0.5426756735537499,-0.052449845256680776,0.02294829789515339,0.2534759614135009,0.08474431931479062,0.03907054001301687,0.15648089910834373,-0.014256707974068862
-0.12031975911071745,-0.1506281977342914,0.04122684836237345,0.07929723363583785,0.10048201849510317,0.02966369178926482,0.09704310569395369,0.10869701009024692,-0.006632717872682349,0.04705127921250607,-0.004551874368558205,0.029431794290328394,0.05655435959399122,-0.06709559047050628,0.02979393409663595,0.04942010969697142,-0.006169131170148395,-0.06071881066826721,-0.10107624249861849,0.06364818880852086,0.06546155621251036,-0.0311128762616317,0.019541140924738236,0.21097553990169662,-0.04914778860202636,0.0431329521296159,0.024940481866392927,-0.5488134395749252,-0.05358686893576313,0.023488169381010213,0.2555269152093503,0.08560341286730769,0.039206240393297453,0.1581079208913558,-0.014633620264242083
-0.12235657208603727,-0.1523645592834754,0.04243633208532323,0.07960753995813644,0.10048074453772395,0.02956452812622942,0.097204936369024,0.10897297320110916,-0.006477026615138202,0.04712783343041354,-0.004286926946254283,0.02943183201968047,0.056670025647456414,-0.0669832541540273,0.029375267228646175,0.049054620680610755,-0.006472197732368442,-0.06069895008295492,-0.1013765215910295,0.06328280597846743,0.0649768961676787,-0.031585179195079645,0.019035064853786962,0.21255785319842926,-0.04900899264088398,0.04415449661522241,0.024804268087124517,-0.5547079307355404,-0.054677466333307015,0.024006296698032007,0.2574990875318739,0.08642850111838575,0.03933357031395386,0.15967250856738377,-0.014999030911532187
-0.12433654406695213,-0.154049503175966,0.0435973726684236,0.07990430941618021,0.10047924217184738,0.029468766753495752,0.09736003588364171,0.10923743669369933,-0.00632821814776121,0.04720150499658193,-0.004032391237954708,0.029431866113187044,0.05678116620907098,-0.06687533938464937,0.028969627690568746,0.048700010426519016,-0.00676686536862034,-0.060681170010785684,-0.10166754345351992,0.06292829167580334,0.0645083130708232,-0.03204127148599783,0.018546137237401894,0.21408404868769293,-0.04887906785050531,0.045139537762701666,0.02467136793479362,-0.5603759546427204,-0.05572489535005453,0.02450418858577426,0.25939775306176555,0.08722191253267425,0.03945323619416246,0.16117885630681222,-0.015353569144173252
-0.126262518179804,-0.1556857802545817,0.044713284172066,0.0801885164197665,0.10047753598052508,0.02937619751766306,0.09750887347775121,0.10949120707178459,-0.006185794724263925,0.047272482730639886,-0.003787562637922639,0.02943189702528963,0.05688808670200611,-0.06677154646399981,0.028576282331550712,0.048355693735232824,-0.0070535499319548355,-0.06066528770116543,-0.1019498252919662,0.06258406198070894,0.06405484972525145,-0.03248215503704425,0.018073316897040254,0.21555757923707697,-0.04875727845139656,0.0460902725677839,0.024541645470562673,-0.5658327092485136,-0.05673209666846532,0.024983208267063062,0.26122769359095654,0.08798575367249731,0.039565863254758415,0.16263076708088264,-0.015697819538991936
-0.1281371601538267,-0.15727594820120466,0.045787064826275994,0.08046103832300797,0.10047564722526786,0.029286628129183975,0.09765187285302625,0.1097350122861846,-0.0060493084384924374,0.04734093818610012,-0.00355180290900475,0.02943192514197678,0.05699106383623657,-0.06667160397315879,0.028194553550235132,0.04802112684418412,-0.007332641898442526,-0.06065114226516209,-0.10222384554947356,0.062249574217420195,0.06361562732942273,-0.032908746505784826,0.017615649907525833,0.21698159835446226,-0.04864297102609372,0.04700870904042452,0.024414969522604642,-0.5710919754670334,-0.05770173247571355,0.025444591063076585,0.2629932559139518,0.0887219357454784,0.03967200723163334,0.1640316982124684,-0.01603232530026733
-0.12996296782250732,-0.15882238597911505,0.04682143499147675,0.08072266759959969,0.10047359439999023,0.0291998823115416,0.09778941775877663,0.1099695113776116,-0.005918354929007965,0.04740702763787762,-0.003324532318509323,0.029431950792731462,0.057090349006350065,-0.06657526541481641,0.027823814453470704,0.04769580427415022,-0.007604507608823772,-0.0606385913396121,-0.10249004721235112,0.06192432383435656,0.06318983768142977,-0.03332188614990718,0.017172260646344882,0.21835899326176345,-0.04853556294630109,0.04789668748884103,0.02429121415715309,-0.5761662826519001,-0.058636219611192524,0.025889459493841967,0.2646984017113109,0.08943219741009428,0.03977216410787178,0.1653848007127367,-0.016357591407867064
-0.13174228104616076,-0.1603273075447133,0.04781886971601344,0.0809741222098304,0.10047139368072985,0.029115798167458073,0.09792185676585151,0.11019530271767657,-0.005792568025436325,0.047470893799964345,-0.0031052228753092118,0.029431974260121268,0.057186171213943274,-0.0664823063268366,0.02746348442515135,0.04737925584788674,-0.007869490606642167,-0.06062750834233816,-0.10274884085121407,0.06160784144978173,0.06277673624667521,-0.03372234563257101,0.016742343882997057,0.21969241364197561,-0.04843453270836182,0.04875589891678501,0.02417025892440205,-0.5810670512770557,-0.05953775805131054,0.026318836271781994,0.26634675067802777,0.09011812443692685,0.039866778244054865,0.16669295335728648,-0.016674087592995143
-0.13347729167517708,-0.16179277471244416,0.04878162676820779,0.08121605446625342,0.1004690592927661,0.029034226735304515,0.09804950736334296,0.11041293108085656,-0.005671615175575496,0.04753266731478092,-0.0028933924926125456,0.029431995787548203,0.0572787395903714,-0.06639252179183078,0.027113025088321963,0.04707104390218722,-0.008127913008674827,-0.06061778020096158,-0.10300060740357479,0.061299690085700645,0.06237563599241909,-0.03411083491708276,0.016325157781263158,0.22098429670047637,-0.048339411819841284,0.0495879009840641,0.02405198894394155,-0.5858047163931592,-0.06040835547876262,0.02673365552293179,0.2679416179348802,0.09078116671828071,0.039956249206046394,0.16795879229584237,-0.01698225112065504
-0.13517005330472717,-0.1632207091251897,0.04971177086205333,0.08144905864681001,0.10046660381190162,0.02895503071200794,0.09817265948798495,0.11062289373712883,-0.0055551935229533325,0.047592468048697,-0.002688599931889443,0.02943201558555061,0.05736824558221642,-0.06630572428073502,0.0267719366366179,0.04677076070078982,-0.008380076864905363,-0.060609305463390044,-0.10324570071057738,0.06099946259852105,0.06198590190134637,-0.03448800836484857,0.015920017701709848,0.22223688907803793,-0.048249777954178834,0.05039413190291328,0.023936294877024308,-0.5903888348104083,-0.06124984855044731,0.0271347725115219,0.26948604658502856,0.09142265303348925,0.040040937527577015,0.16918473685829433,-0.017282489371594725
-0.13682249066349683,-0.16461290332687661,0.05061119466816923,0.08167367755808966,0.10046403841295408,0.028878083321638708,0.09829157857622718,0.11082564572058332,-0.005443026528850752,0.04765040622245199,-0.0024904404085382592,0.02943203383695778,0.05745486485100728,-0.06622174177919336,0.026439754507683547,0.04647802604666998,-0.008626265480314255,-0.06060199271775678,-0.10348444982393326,0.060706779305866806,0.06160694608512079,-0.034854470136550755,0.015526290705277461,0.22345226606657118,-0.04816524914789302,0.05117592257891751,0.023823072820254546,-0.5948281784552665,-0.062063921370938344,0.027522972095933858,0.27098283613415547,0.09204380390780546,0.040121169596801905,0.17037301211169517,-0.017575182225284466
-0.1384364085427748,-0.16597103096207885,0.05148163709880555,0.0818904082146636,0.10046137307566637,0.02880326731147663,0.09840650821298336,0.11102160440174921,-0.005334861052161545,0.047706583400482235,-0.002298541760228315,0.029432050701129416,0.057538758929942944,-0.06614041615430521,0.02611604637013224,0.04619248508674723,-0.008866744681254807,-0.06059575926476323,-0.10371716110062842,0.06042128580322601,0.061238223427489226,-0.0352107789838528,0.0151433906711206,0.22463234850680996,-0.04808547885963921,0.051934507252884766,0.023712224145986473,-0.5991308159389379,-0.06285212159159223,0.027898976105314686,0.27243456737435745,0.09264574284616063,0.04019724181847355,0.17152566863356955,-0.017860684250929394
-0.14001350021613093,-0.1672966561442306,0.05232469927244203,0.08209970677099766,0.10045861675606571,0.028730474059687056,0.0985176724381838,0.11121115346917083,-0.0052304648159337466,0.04776109335927673,-0.0021125610954218807,0.02943206631746061,0.05762007667322039,-0.06606160172641501,0.025800409395986847,0.045913806298809375,-0.009101764016463147,-0.060590529997105055,-0.10394412010327407,0.060142650960746696,0.06087922769456659,-0.0355574525076846,0.014770773952905894,0.2257789176876001,-0.048010151745496187,0.052671032857399276,0.02360365530789254,-0.603304184040688,-0.06361587448480704,0.02826344979459198,0.2738436242349634,0.09322950617678145,0.04026942417397465,0.1726445998930934,-0.018139326716710306
-0.14155535532979455,-0.16859124204333414,0.05314185849584901,0.0823019928187719,0.10045577752962755,0.028659602780798953,0.09862527776185458,0.11139464640780981,-0.005129624201866738,0.04781402285168242,-0.0019321818531103636,0.029432080808293765,0.05769895552773212,-0.06598516401643185,0.02549246779178862,0.045641679648763096,-0.009331557887756298,-0.060586236449760925,-0.10416559332352483,0.059870565088687995,0.06052948805731649,-0.03589497094924083,0.014407935507534313,0.22689362851707567,-0.047938980032455336,0.05338656726697532,0.023497277625141467,-0.6073551505345057,-0.06435649528537549,0.02861700750984223,0.2752122130235132,0.09379605170168559,0.04033796327831514,0.17373155757056635,-0.01841141942912052
-0.14306346726381708,-0.16985615874827786,0.0539344805462435,0.08249765314328725,0.10045286271130506,0.028590559816982837,0.09872951492999188,0.11157240954726516,-0.005032142324069409,0.047865452281436155,-0.0017571112158948664,0.02943209428134914,0.057775522652110514,-0.06591097864392778,0.025191870563291356,0.045375814905638856,-0.009556346608868307,-0.060582815992015655,-0.10438182974509554,0.05960473825926941,0.0601885659778952,-0.03622378057114346,0.014054405438822292,0.2279780211949938,-0.047871700393916146,0.05408210659228061,0.023393007054929187,-0.611290069561471,-0.06507520004371925,0.028960217674803623,0.27654237941408494,0.09434626631982733,0.04040308501488645,0.1747881650948247,-0.01867725241493866
-0.1445392399771177,-0.1710926904598078,0.05470383049090506,0.0826870450170888,0.10044987895648062,0.028523258004700795,0.09883056047660568,0.11174474474089947,-0.004937837341519356,0.04791545630000887,-0.0015870778276724099,0.02943210683176252,0.05784989590415729,-0.06583893035517753,0.02489828949061512,0.04511594010175145,-0.009776337393134866,-0.0605802111376473,-0.10459306226178111,0.059344898772569,0.059856052417451434,-0.03654429667866028,0.013709745906150496,0.22903353158136142,-0.04780807124835268,0.05475858164556358,0.02329076396037919,-0.6151148305633254,-0.06577311519701827,0.02929360719189671,0.27783602348542424,0.09488097276286346,0.040464996814198594,0.17581592963596543,-0.01893709745839956
-0.14598399435764972,-0.17230204206903155,0.05545108224436563,0.08287049909624278,0.10044683234611002,0.028457616107668025,0.09892857809165848,0.11191193172720626,-0.0048465409752907525,0.047964104336025645,-0.001421829774732003,0.029432118543800706,0.05792218471444214,-0.06576891216353546,0.024611417292754508,0.044861800125801245,-0.009991725272197818,-0.06057836895408651,-0.10479950896465114,0.059090791754454905,0.05953156532821001,-0.036856906324312516,0.013373548354585166,0.23006150042798212,-0.04774787041620015,0.05541686368520011,0.02319047287881706,-0.6188349016377609,-0.06645128603224497,0.02961766533671077,0.27909491306582795,0.09540093556212895,0.040523889631172684,0.17681625275545604,-0.019191209505741418
-0.14739897410368252,-0.17348534517388248,0.0561773270325097,0.08304832197429984,0.10044372845871419,0.028393558308249408,0.09902371982997758,0.11207423021672482,-0.004758097202043504,0.04801146106600649,-0.0012611327953186697,0.029432129492311547,0.057992490861156425,-0.0657008245872228,0.024330965962321177,0.04461315543732891,-0.010202693948802478,-0.06057724055482789,-0.1050013743113405,0.05884217787512252,0.059214747397269826,-0.03716197073352859,0.01304543102860832,0.23106318161568265,-0.0476908930811748,0.0560577695313752,0.02309206229393939,-0.6224553680469777,-0.06711068418859903,0.029932847212961883,0.28032069560377637,0.09590686634763539,0.04057993966618984,0.17779043988615448,-0.019439827948681255
-0.14878535116461689,-0.17464366358280123,0.056883580907392754,0.08322079844040996,0.1004405724313853,0.028331013750438738,0.09911612718237929,0.11223188174117485,-0.004672361099727,0.04805758683390113,-0.0011047686879278173,0.02943213974395429,0.058060909159062674,-0.06563457497182625,0.02405666525328783,0.04436978089169578,-0.010409416587273328,-0.060576780662140124,-0.10519885018914235,0.058598832177538786,0.058905264013575834,-0.03745982748409529,0.012725036736467358,0.23203974951991896,-0.04763695001126636,0.05668206613169224,0.022995464414301805,-0.6259809665033689,-0.06775221432478828,0.03023957682497728,0.28151490875155133,0.09639942856507235,0.04063330986751912,0.1787397087899567,-0.019683177797613322
-0.15014423077059488,-0.17577799835136662,0.05757079143532734,0.08338819348096885,0.10043736901158816,0.028269916128452546,0.09920593202705838,0.11238511129597614,-0.004589197825135949,0.04810253802582459,-9.525338929386965E-4,0.02943214935824728,0.05812752807350489,-0.06557007688666859,0.02378826130625945,0.04413146466557935,-0.010612056545498528,-0.0605769472293425,-0.1053921168824596,0.058360543005887236,0.058602801433044166,-0.03775079246792234,0.012412030836369844,0.23299230561054218,-0.047585866001978984,0.05729047464445096,0.022900614959744763,-0.6294161157659891,-0.06837672005820027,0.030538249816445,0.2826789898224063,0.09687924168437372,0.04068415124658622,0.1796651971199002,-0.01992147075451148
-0.15147665607995447,-0.17688929239397905,0.05823984366301738,0.08355075405829206,0.10043412260122614,0.02821020331573479,0.09929325747664133,0.11253412880273209,-0.004508481706011552,0.04814636740550176,-8.042382258383759E-4,0.029432158388463296,0.058192430268873226,-0.06550724958576931,0.023525515397412114,0.04389800727379899,-0.010810768052317546,-0.060577701113707645,-0.10558134395410322,0.058127111024914156,0.05830706511988894,-0.0380351616599804,0.012106099419394072,0.2339218843771924,-0.04753747851039097,0.05788367409805322,0.022807452956783186,-0.6327649440056441,-0.06898498926759515,0.03082923591719455,0.28381428425939664,0.09734688496297796,0.04073260403251081,0.18056796919591828,-0.020154906194693362
-0.15278361247269037,-0.17797843470912098,0.058891565451614024,0.08370871069490643,0.10043083729419307,0.02815181702982795,0.0993782186340825,0.11267913041441793,-0.00443009543292676,0.048189124415170016,-6.597037433511538E-4,0.029432166882397186,0.058255693099594094,-0.0654460175254235,0.023268202798706245,0.04366922066909161,-0.011005696834149691,-0.06057900579250626,-0.10576669104894731,0.05789834832186523,0.05801777824487259,-0.0383132127161162,0.011806947667138148,0.23482945865962945,-0.04749163645352703,0.058462304677157816,0.022715920543552846,-0.6360313133325347,-0.06957775883799805,0.031112881133907064,0.28492205323499387,0.09780290081811835,0.04077879868820418,0.1814490220885066,-0.02038367206580292
-0.1540660315167758,-0.17904626425328773,0.05952673225601455,0.08386227888794123,0.1004275169084287,0.028094702529136574,0.09946092326871861,0.11282029968279345,-0.004353929338323139,0.048230855446046085,-5.187637263734008E-4,0.029432174883026158,0.05831738905060152,-0.06538630993153124,0.023016111738304146,0.04344492741722093,-0.011196980694568003,-0.06058082711590011,-0.10594830862756224,0.05767407758345349,0.05773468032353132,-0.03858520641872254,0.0115142983648578,0.2357159444519508,-0.04744819914860076,0.059026970679556374,0.02262596278459126,-0.6392188418263332,-0.07015571891554404,0.03138950971569986,0.2860034804845177,0.09824779785504306,0.0408228568069054,0.18230929109188487,-0.020607945711606616
-0.15532479463265933,-0.18009357349546062,0.06014607141612025,0.08401166037464974,0.10042416501333179,0.028038808338101694,0.09954147242222568,0.11295780860484485,-0.004279880751854423,0.048271604081916386,-3.8126176580238676E-4,0.02943218242907944,0.05837758613330036,-0.06532806041074525,0.022769042451307744,0.043224959940518067,-0.011384750050342913,-0.06058313309136789,-0.10612633863664557,0.057454131341003405,0.05745752597945525,-0.03885138798688464,0.011227890553205284,0.23658220524078905,-0.04740703537605596,0.05957824318207388,0.022537527495503595,-0.6423309233627402,-0.07071951673078736,0.03165942592133447,0.28705967846273756,0.09868205359175668,0.04086489190520181,0.18314965465744157,-0.02082789462748723
-0.15656073647959817,-0.18112111168100103,0.060750266017778894,0.08415704426718033,0.10042078495324773,0.027984085997731407,0.09961996095289435,0.11309181856276573,-0.004207853422698418,0.04831141131894399,-2.470509392064166E-4,0.02943218955553125,0.05843634824223018,-0.06527120660029796,0.022526806311992047,0.043009159823609464,-0.011569128427274374,-0.060585893695158655,-0.1063009151223518,0.057238351277566414,0.057186083819470976,-0.03911198826558596,0.010947478303729599,0.2374290559299826,-0.04736802254914495,0.06011666244894372,0.022450565077401938,-0.6453707454915716,-0.07126976004114156,0.03192291561123211,0.288091693901323,0.09910611691550654,0.04090501012621846,0.18397093884903262,-0.02104367715386292
-0.157774648085814,-0.18212958783110103,0.06133995837348827,0.08429860807225209,0.10041737986763677,0.02793048983880213,0.0996964780255116,0.11322248117003843,-0.004137757000773509,0.04835031576438682,-1.15993067867215E-4,0.029432196294028518,0.05849373547695411,-0.06521568985204555,0.02228922503965359,0.04279737717569118,-0.0117502329189144,-0.06058908070694173,-0.10647216479197959,0.05702658759139924,0.056920135409115676,-0.039367224806790994,0.010672829605075533,0.23825726639767553,-0.04733104597613402,0.06064274011193179,0.02236502836089265,-0.6483413055881634,-0.071807020236438,0.032180247684441915,0.2891005128348406,0.09952041030165495,0.04094331086468462,0.18477392137381485,-0.02125544311315867
-0.15896727974280828,-0.18311967350141953,0.06191575316641288,0.08443651860929599,0.10041395270843534,0.027877976775365663,0.09977110755317574,0.11334993903451904,-0.004069506569878092,0.04838835381657989,1.2041954921276596E-5,0.029432202673263116,0.058549804433113514,-0.06516145494684378,0.022056129971032016,0.04258947004425589,-0.011928174611063758,-0.060592667564385784,-0.1066402075289014,0.05681869841073847,0.0566594743381373,-0.03961730285369116,0.010403725348364054,0.2390675647261568,-0.04729599820320464,0.06115696114787934,0.02228087245930857,-0.6512454254714339,-0.0723318351458865,0.03243167537810933,0.29008706515442717,0.09992533182165628,0.04097988732392234,0.18555933523552323,-0.021463334395411444
-0.1601393436825938,-0.1840920053212634,0.062478220295679544,0.08457093283883911,0.10041050625504466,0.027826506116475587,0.09984392859655149,0.1134743264480134,-0.004003022226693002,0.04842555982824002,1.371767722538071E-4,0.029432208719296568,0.05860460846608759,-0.06510844983586565,0.021827361393007665,0.042385303875674074,-0.012103058974713367,-0.060596629234875334,-0.106805156865111,0.05661454925529585,0.056403905366930865,-0.039862416238070825,0.010139958401580964,0.2398606401398638,-0.04726277842778892,0.0616597856762098,0.02219805463083147,-0.6540857646575297,-0.07284471157983705,0.03267743744476473,0.2910522287409044,0.10032125696348985,0.04101482701339753,0.18632787205127396,-0.02166748549709664
-0.16129151655510218,-0.18504718733262226,0.06302789745612361,0.08470199861138396,0.10040704312731599,0.027776039394288507,0.09991501572536805,0.11359577001061805,-0.003938228700374731,0.04846196625489885,2.595271156738616E-4,0.02943221445584403,0.05865819793026728,-0.06505662540589585,0.021602767929938513,0.04218475101847803,-0.012274986229896654,-0.060600942101973414,-0.10696712041531081,0.056414012540341424,0.05615324364584925,-0.04010274819959324,0.009881332763972933,0.24063714568273425,-0.04723129197349436,0.06215165059622732,0.02211653414911821,-0.656864832396997,-0.0733461276355455,0.03291775922083776,0.29199683322273984,0.10070854028500095,0.04104821219428353,0.18708018506794752,-0.02186802401731837
-0.1624244417216284,-0.1859857931465147,0.0635652924815304,0.08482985534572689,0.10040356579684534,0.027726540206906937,0.09998443934635835,0.11371438919705752,-0.0038750550081425366,0.048497603790050026,3.7920230699342816E-4,0.029432219904523292,0.05871062039658138,-0.06500593526600336,0.021382205980585833,0.041987690265598,-0.012444051682726406,-0.06060558386458163,-0.10712620027605804,0.056216967119640596,0.05590731400022731,-0.040338472134799255,0.009627662792473271,0.2413977006623995,-0.04720144981897761,0.06263297108166467,0.022036272182026275,-0.6595849986253296,-0.07383653479253356,0.03315285359815178,0.29292166339876724,0.10108751691809977,0.041080120279473185,0.18781689190986003,-0.022065071115105736
-0.1635387313788755,-0.18690836793244336,0.06409088547685422,0.08495463464453569,0.10040007659684444,0.02767797407451437,0.10005226600131613,0.11383029687135214,-0.003813434142843061,0.04853250148840714,4.963057152310746E-4,0.029432225085073573,0.05876192085059224,-0.06495633555331004,0.021165539200097377,0.041794006432160816,-0.012610346037709157,-0.060610533447038824,-0.10728249339313081,0.056023297863868525,0.0556659502747482,-0.04056975228273261,0.00937877249307472,0.24214289288549348,-0.04717316817415593,0.0631041419478656,0.021957231678027177,-0.6622485039410904,-0.07431635982001325,0.03338292190872625,0.2938274623608115,0.1014585039396039,0.04111062419360995,0.18853857708566313,-0.022258741931197916
-0.16463496852696466,-0.18781543025526162,0.06460513076181541,0.08507646085403565,0.10039657773081438,0.027630308307514412,0.10011855863849731,0.11394359975537456,-0.003753302788976499,0.04856668687850389,6.10935173384311E-4,0.029432230015548254,0.05881214187320102,-0.06490778475584684,0.020952638022977903,0.04160358996578453,-0.012773955687262752,-0.06061577091864921,-0.10743609189995797,0.05583289527144723,0.05542899473147459,-0.040796744353336745,0.009134494870850409,0.24287328070553751,-0.04714636809802614,0.06356553890516967,0.02187937725989638,-0.6648574687122691,-0.07478600651614647,0.033608154731978986,0.2947149343472243,0.10182180162263146,0.041139792697967206,0.18924579427913868,-0.022449145977378304
-0.16571370879367603,-0.1887074737724147,0.0651084586456023,0.08519545157381637,0.10039307128021308,0.02758351188552648,0.10018337686020153,0.11405439885618188,-0.003694601064100905,0.04860018606572449,7.231833591943725E-4,0.02943223471248498,0.05886132380576101,-0.06486024355072739,0.02074337922338616,0.04141633658659257,-0.012934962980208064,-0.060621277421344495,-0.1075870834296724,0.055645655109038475,0.05519629749647785,-0.04101959610409585,0.008894671333011944,0.24358939490239734,-0.04712097515311734,0.06401751971047367,0.021802675125274177,-0.6674139013997598,-0.07524585729656673,0.033828732632346585,0.2955847473547327,0.10217769458081957,0.04116769068436791,0.1899390684457062,-0.022636387496129
-0.16677548212617715,-0.18958496880331255,0.06560127705008134,0.08531171812204405,0.10038955921127972,0.027537555346214597,0.10024677714903069,0.11416278985642758,-0.0036372722829058303,0.04863302382672708,8.331381435762291E-4,0.02943223919105613,0.05890950490118808,-0.06481367465607492,0.02053764550946119,0.041232146954430615,-0.013093446470863386,-0.060627035104368746,-0.10773555140309757,0.055461478079184126,0.05496771605053605,-0.04123844786980221,0.008659151139998203,0.24429174041014715,-0.0470969190922555,0.06446042522754052,0.021727092953701035,-0.6699197061766023,-0.07569627464755435,0.034044826834407294,0.2964375355328536,0.10252645281622161,0.04119437944178828,0.19061889773397353,-0.0228205657931175
-0.16782079436057395,-0.19044836378151253,0.06608397299689453,0.08542536596073452,0.10038604338115358,0.02749241068303415,0.1003088130750267,0.11426886347165056,-0.0035812627415717432,0.04866522369611357,9.40882909963516E-4,0.029432243465202228,0.05895672146247409,-0.06476804269531959,0.020335325148704512,0.041050926361003076,-0.013249481150239304,-0.060633027065032825,-0.10788157529475197,0.0552802695128181,0.05474311475984606,-0.04145343304981299,0.00842779090012057,0.24498079790827684,-0.04707413357387955,0.06489458040539277,0.021652599819743493,-0.6723766899127049,-0.07613760245748033,0.0342565998417762,0.2972739013823806,0.10286833268049422,0.04121991689881605,0.19128575524948793,-0.023001775544794826
-0.16885012867877547,-0.19129808659941694,0.0665569139720557,0.08553649508519265,0.10038252554340202,0.02744805125107766,0.10036953548563302,0.114372705777797,-0.003526521520314645,0.04869680804610345,0.0010464968474484275,0.02943224754775037,0.05900300796984978,-0.06472331407264026,0.02013631162173277,0.04087258444485509,-0.013403138660711895,-0.0606392372947228,-0.10802523087875664,0.05510193908458165,0.054522364443114674,-0.041664678556702944,0.008200454103759955,0.245657025289507,-0.0470525559026347,0.0653202951830411,0.02157916611184019,-0.6747865685869466,-0.07657016723858447,0.034464206005330025,0.2980944177770373,0.10320357775789989,0.04124435784472446,0.19194009067594162,-0.02318010708317563
-0.16986394696139454,-0.1921345458543165,0.06702044918011314,0.08564520038124598,0.10037900735305567,0.02740445168028478,0.10042899268020047,0.1144743985119453,-0.003473000302261761,0.04872779815988507,0.0011500552202731533,0.029432251450519663,0.05904839719770306,-0.06467945685846233,0.01994050330197291,0.040697034927314156,-0.013554487495442177,-0.06064565062946359,-0.10816659045635248,0.05492640054906174,0.0543053419717648,-0.041872305229815956,0.007977010693525582,0.24632085901600637,-0.047032126792388995,0.06573786532784039,0.02150676345651274,-0.6771509731817252,-0.07699427924979757,0.03466779204569633,0.2988996298252792,0.10353241967769923,0.04126775413156939,0.1925823317674134,-0.023355646659682813
-0.170862691044702,-0.1929581320038244,0.06747491069859196,0.08575157195348213,0.10037549037123136,0.027361587795356652,0.10048723057056137,0.11457401934886675,-0.0034206532070194867,0.04875821429924419,0.0012516296159457813,0.029432255184415158,0.059092920322236786,-0.06463644068404488,0.019747803159101386,0.040524195367675035,-0.013703593183709074,-0.06065225270444218,-0.10830572306657454,0.05475357149624034,0.05409192990032209,-0.042076428216862215,0.007757336667152579,0.24697271537450843,-0.047012790149183276,0.06614757321392216,0.021435364647602064,-0.6794714551090164,-0.07741023353012913,0.034867497534394956,0.29969005658736614,0.10385507886267241,0.04129015485940972,0.193212885723761,-0.023528476689770556
-0.17184678388900912,-0.19376921843803466,0.06792061454224249,0.08585569542733466,0.10037197606941034,0.0273194365417809,0.10054429282902343,0.11467164215575969,-0.0033694366374828586,0.04878807576700433,0.001351288174004524,0.029432258759511807,0.059136607020741715,-0.06459423664429557,0.019558118484234603,0.0403539869360637,-0.013850518463230774,-0.06065902991198169,-0.10844269468148746,0.054583373124594575,0.053882016124339675,-0.042277157326391576,0.007541313710240884,0.24761299163968095,-0.04699449287194078,0.06654968854640901,0.0213649435802066,-0.6817494912117267,-0.077818310851098,0.03506345533753941,0.3004661926611953,0.10417176521977449,0.04131160654648493,0.19383214045998354,-0.023698675979887406
-0.1728166306652643,-0.1945681624750987,0.06835786164557792,0.08595765222754173,0.10036846583342776,0.027277975917432296,0.1006002210249843,0.11476733722723467,-0.0033193091386005493,0.04881740096475669,0.0014490957972350283,0.029432262185129527,0.05917948556326589,-0.06455281720804566,0.019371360635061983,0.040186334202553936,-0.0139953234404648,-0.060665969362533316,-0.10857756838725767,0.05441573003042469,0.05367549356347901,-0.04247459735369368,0.007328828856226721,0.24824206715409008,-0.046977184669037074,0.06694446903646181,0.021295475189015138,-0.6839864883794807,-0.0782187785957669,0.03525579202558375,0.3012285096489394,0.10448267877828396,0.041332153285952695,0.1944404657792339,-0.023866319938203647
-0.1737726197661111,-0.1953553062863331,0.06878693877126603,0.08605751983522109,0.10036496096721909,0.027237184909266497,0.10065505475123533,0.11486117150240215,-0.0032702312669537705,0.04884620744630631,0.001545114346952524,0.029432265469900496,0.05922158289737829,-0.06451215613509914,0.019187444799278357,0.04002116494123463,-0.014138065739799352,-0.0606730588483185,-0.10871040455222321,0.054250570012110595,0.05347225986759619,-0.04266884838242592,0.0071197741712349496,0.24886030433221087,-0.046960817889068675,0.06733216103163449,0.021226935390743176,-0.686183787813881,-0.07861189157113228,0.035444628252227946,0.3019774575152661,0.10478801028023313,0.04135183689058871,0.1950382144581518,-0.024031480770403343
-0.17471512374716036,-0.19613097775644853,0.06920811935113107,0.08615537202555831,0.100361462696361,0.027197043434670633,0.10070883174090585,0.11495320876571168,-0.0032221654701341767,0.04887451196721706,0.0016394028237902974,0.02943226862182954,0.05926292472665057,-0.06447222839944314,0.019006289774821074,0.039858409948037736,-0.014278800642477229,-0.060680286809308946,-0.10884126098301754,0.054087823888109864,0.053272217143890105,-0.042860006064048176,0.006914046461689417,0.24946804959514474,-0.046945347364366,0.0677130001055038,0.02115930103039728,-0.6883426689746512,-0.07899789275990951,0.0356300791052667,0.30271346584678827,0.10508794172740632,0.041370697026676166,0.19562572325229696,-0.024194227661729056
-0.17564450020377642,-0.196895491284012,0.0696216642658086,0.08625127908788874,0.10035797217143731,0.0271575322870763,0.10076158797589695,0.11504350983301703,-0.0031750759750171957,0.04890233053079799,0.0017320175352855689,0.029432271648348447,0.05930353558341605,-0.06443301011806998,0.018827817765551067,0.03969800287123941,-0.014417581216027984,-0.06068764230128004,-0.10897019306971077,0.05392742532761169,0.05307527170335338,-0.04304816187694505,0.006711547002762617,0.2500656342420084,-0.04693073026597579,0.06808721161009652,0.021092549831107765,-0.6904643532348709,-0.07937701401712247,0.03581225443187612,0.30343694502139956,0.10538264688874704,0.041388771338161455,0.19620331382867087,-0.024354626946365584
-0.17656109258826075,-0.1976491485268238,0.0700278225684651,0.0863453080297616,0.1003544904712539,0.0271186330854776,0.10081335778756338,0.11513213272418447,-0.003128928684125118,0.048929678430839334,0.001823012251420803,0.02943227455636485,0.059343438896307284,-0.06439447848491883,0.01865195419113779,0.039539880053638864,-0.014554458434923695,-0.06069511496571393,-0.1090972539208466,0.0537693106928533,0.05288133382493246,-0.043233403366939156,0.006512181285928368,0.25065337526334075,-0.04691692596899395,0.06845501119424442,0.021026660347284922,-0.6925500072706595,-0.07974947671635024,0.03599125914057631,0.3041482872952706,0.10567229177162145,0.041406095562020497,0.19677129363161522,-0.024512742265156755
-0.17746523097193342,-0.1983922390964968,0.0704268321574371,0.0864375227664078,0.10035101860592249,0.027080328227530207,0.10086417395032236,0.11521913282342526,-0.00308369107936051,0.04895657029137457,0.0019124383491606323,0.029432277352306337,0.05938265705302262,-0.0643566117094939,0.018478627510017036,0.039383980385503656,-0.014689481293118194,-0.06070269500136295,-0.10922249448917742,0.053613418892189416,0.05269031753595131,-0.043415814370739665,0.006315858784044461,0.25123157610132807,-0.04690389592726615,0.06881660529065349,0.020961611920868626,-0.6946007462081439,-0.08011549234998995,0.03616719348188011,0.3048478678144957,0.10595703506003631,0.04142270363566607,0.1973299566877508,-0.024668634712565467
-0.17835723275626236,-0.19912504120616822,0.0708189204021511,0.08652798429688317,0.1003475575198282,0.027042600845937244,0.10091406776879733,0.11530456302841051,-0.0030393321324664706,0.048983020103718126,0.0020003449469200778,0.029432280042160256,0.05942121145872698,-0.06431938895976198,0.018307769054389113,0.039230245167446526,-0.014822696909078354,-0.06071037313731361,-0.1093459636888301,0.05345969124308106,0.05250214040748602,-0.043595475223728634,0.00612249273253846,0.25180052736116404,-0.04689160355659013,0.06917219157417298,0.020897384640455492,-0.6966176365482969,-0.08047526308745714,0.03634015330943691,0.3055360455576898,0.10623702852260053,0.04143862779712714,0.19787958435506692,-0.024822362973710876
-0.17923740333686333,-0.19984782227494766,0.07120430472624739,0.0866167508680285,0.10034410809449308,0.0270054347678547,0.10096306915904256,0.11538847388912034,-0.002995822221637306,0.04900904126100357,0.0020867790298069555,0.029432282631509758,0.059459122590451864,-0.0642827903089702,0.018139312876314324,0.03907861798246845,-0.014954150623869,-0.06071814060741574,-0.1094677085045728,0.05330807134424007,0.052316723363497165,-0.043772462953358855,0.005931999925401052,0.2523605074774315,-0.04688001412565721,0.06952195939348449,0.020833959303101043,-0.6986016988882329,-0.08082898229485667,0.03651023032330102,0.306213164215215,0.10651241739274349,0.041453898678644886,0.19842044602077696,-0.024973983452247116
-0.18010603672389805,-0.20056083949240838,0.07158319315144311,0.08670387812727122,0.10034067115134448,0.02696881447707329,0.10101120672433975,0.11547091373728276,-0.002953133053762369,0.049034646590425106,0.0021717855663988574,0.02943228512556641,0.05949641004782388,-0.06424679668606108,0.017973195604043368,0.0389290445764661,-0.015083886092809353,-0.06072598912596278,-0.10958777409379589,0.05315850495622831,0.05213399050263417,-0.043946851459322256,0.005744300524809187,0.2529117833390124,-0.04686909465405846,0.06986609017819964,0.020771317378607598,-0.700553910455762,-0.08117683501931099,0.03667751229679509,0.3068795530101675,0.10678334072345959,0.04146854539425525,0.19895279975211494,-0.025123550389784664
-0.18096341612212108,-0.20126434034615664,0.07195578480532469,0.08678941926519088,0.10033724745439523,0.026932725078755305,0.10105850782600807,0.11555192880717398,-0.0029112375918381676,0.04905984838336631,0.002255407617741677,0.029432287529199776,0.05953309260041953,-0.06421138982939269,0.017809356307793994,0.03878147274655973,-0.015211945371178879,-0.060733910864525974,-0.10970620388176792,0.05301093988986881,0.05195386893172262,-0.04411871168154382,0.005559317883307312,0.2534546108756965,-0.0468588138167585,0.07020475782315189,0.020709440976120926,-0.7024752074724135,-0.08151899844082557,0.03684208328829679,0.3075355274657684,0.10704993171862955,0.04148259562186266,0.19947689290385476,-0.02527111597749754
-0.18180981447357286,-0.20195856311526536,0.07232227039595242,0.08687342514867981,0.10033383771284086,0.026897152266524775,0.10110499864962681,0.11563156334847642,-0.002870109987130132,0.04908465842358219,0.002337686439191213,0.029432289846964284,0.05956918823201521,-0.06417655224349947,0.017647736374251814,0.03863585223665043,-0.01533836899441328,-0.0607418984298601,-0.1098230396506814,0.05286532590187869,0.05177628861003295,-0.04428811175696243,0.005376978377570456,0.2539892356093562,-0.046849141854507115,0.07053812905148912,0.020648312812870467,-0.7043664873587103,-0.08185564229429666,0.03700402383915137,0.3081813901233614,0.1073123180427756,0.041496075680253326,0.19999296268598074,-0.025416730460506867
-0.18264549496568258,-0.2026437373321319,0.0726828326558871,0.08695594444544893,0.10033044258357741,0.02686208229172696,0.1011507042670304,0.11570985973182349,-0.0028297255157064983,0.04910908801358564,0.0024186615756609875,0.02943229208312367,0.05960471418197664,-0.06414226715865458,0.01748827938913396,0.03849213463966398,-0.015463196053197296,-0.06074994484281049,-0.10993832162295854,0.0527216145971817,0.0516011822035073,-0.044455117165975465,0.005197211252859002,0.2545158931722912,-0.04684005048971687,0.07086636375801782,0.020587916184899302,-0.7062286107942028,-0.08218692926402164,0.037163411158799196,0.3088174312148341,0.10757062211093382,0.04150901060144677,0.20050123669462358,-0.02556044223558292
-0.18347071150732838,-0.20332008421511222,0.07303764675800455,0.08703702374055737,0.1003270626736426,0.026827501934689267,0.1011956486944021,0.11578685854760161,-0.002790060519003139,0.049133147999375154,0.0024983709507872443,0.02943229424167322,0.05963968698400899,-0.0641085184930163,0.017330931027209433,0.03835027330598275,-0.015586464263829248,-0.060758043518160616,-0.11005208853925014,0.05257975933740274,0.05142848494819309,-0.04461979086934744,0.005019948477352707,0.2550348097951074,-0.04683151284738583,0.07118961533411201,0.02052823493964071,-0.7080624036436296,-0.08251301535285366,0.037320319298106995,0.30944392929292847,0.10782496136017139,0.04152142419874226,0.2010019334090933,-0.025702297942663727
-0.18428570917520445,-0.20398781707409266,0.07338688070524617,0.08711670764558044,0.10032369854258204,0.026793398477830122,0.10123985494676196,0.115862598698526,-0.0027510923481105327,0.04915684879362864,0.002576850950475451,0.02943229632636003,0.059674122502468875,-0.06407529081716115,0.017175638949220404,0.03821022325760747,-0.015708210034203262,-0.06076618824536818,-0.11016437773152284,0.052439715155086705,0.051258134522195735,-0.044782193436313664,0.0048451246056217005,0.25554620276628404,-0.04682350338068827,0.07150803097538011,0.02046925345020805,-0.7098686587595385,-0.08283405022794633,0.03747481931180132,0.3100611518225944,0.1080754485041393,0.04153333913077906,0.20149526265758597,-0.02584234255064802
-0.18509072463266046,-0.2046471416909867,0.07373069569625874,0.08719503890097338,0.10032035070474217,0.026759759680475635,0.10128334508911731,0.11593711748646025,-0.0027127993115028046,0.04918020039747684,0.002654136501250799,0.02943229834070153,0.05970803596642136,-0.06404256932082435,0.01702235270519445,0.03807194110762795,-0.015828468525728175,-0.06077437317014384,-0.11027522519159957,0.052301438673221255,0.0510900709255215,-0.04494238316454728,0.00467267665055574,0.25605028086539333,-0.04681599780089523,0.07182175197317636,0.02041095659127444,-0.7116481376707878,-0.08315017754485893,0.037626979410821965,0.3106693557362617,0.10832219177192466,0.04154477696189739,0.2019814260539139,-0.02598061943788305
-0.1858859865230096,-0.2052982566769852,0.07406924646870285,0.08727205847213788,0.10031701963149023,0.026726573755255688,0.1013261402845202,0.11601045069390649,-0.0026751606259544022,0.04920321242095995,0.0027302611437977323,0.029432300288002373,0.05974144200160876,-0.06401033978168356,0.016871023643679702,0.03793538498461524,-0.015947273711477278,-0.060782592776832525,-0.11038466563548639,0.052164888029676566,0.05092423636723444,-0.04510041619260112,0.004502543963130438,0.2565472447717679,-0.0468089730113196,0.07213091399095033,0.020353329716427393,-0.7134015721655104,-0.083461535251635,0.03777686510534058,0.31126878795565116,0.1085652951323569,0.041555758219058506,0.20246061740740376,-0.026117170467734332
-0.18667171583914596,-0.20594135380824147,0.07440268162185268,0.08734780563965253,0.1003137057533622,0.026693829345962067,0.10136826083925463,0.11608263266055587,-0.0026381563704127985,0.0492258941022621,0.0028052571020398534,0.02943230217136993,0.05977435466048362,-0.06397858853603695,0.016721604826472915,0.03780051446157931,-0.016064658430840234,-0.060790841871561335,-0.11049273256379284,0.052030022806206555,0.05076057515939908,-0.04525634660538394,0.004334668119441329,0.2570372874502621,-0.04680240704501023,0.0724356473263454,0.020296358636892203,-0.7151296657763797,-0.0837682558743264,0.0379245393391248,0.311859685882524,0.10880485850482136,0.041566302445557764,0.20293302310792127,-0.02625203605959299
-0.18744812627116883,-0.20657661834153804,0.07473114391996993,0.08742231808408789,0.10031040946213923,0.026661515506760925,0.10140972624535646,0.1161536963552546,-0.0026017674426160676,0.04924825432581047,0.0028791553480812995,0.02943230399372842,0.05980678745044498,-0.06394730245123886,0.016574050948445305,0.03766729048916444,-0.01618065444092731,-0.06079911556612179,-0.11059945831852823,0.05189680396168409,0.050599033617324235,-0.04541022653318417,0.004168992814483889,0.25752059451561554,-0.04679627900594469,0.07273607715988467,0.020240029601525465,-0.7168330951753412,-0.08407046678530662,0.038070062615869586,0.3124422778605614,0.10904097795754328,0.04157642825174301,0.20339882248781566,-0.026385255255648287
-0.18821542453357762,-0.20720422931136123,0.07505477057780813,0.08749563196579113,0.1003071311128527,0.02662962168266094,0.10145055522065242,0.1162236734437107,-0.002565975518262402,0.04927030163931821,0.0029519856633033925,0.029432305757831928,0.0598387533604053,-0.06391646889976837,0.016428318262102958,0.03753567533278057,-0.01629529246495677,-0.06080740926255699,-0.1107048741365325,0.05176519376926893,0.050439559965662815,-0.04556210624471108,0.004005463762200531,0.2579973445768056,-0.04679056901349339,0.07303232379101704,0.02018432927798779,-0.7185125114843616,-0.084368290455604,0.03821349311806482,0.3130167836103859,0.10927374589422446,0.04158615336293146,0.2038581881624247,-0.026516865783726633
-0.1889738106734809,-0.20782435980969444,0.07537369352949023,0.08756778199999114,0.10030387102571833,0.026598137691146655,0.10149076574648805,0.11629259435223864,-0.0025307630125550673,0.049292044269844085,0.00302377669588581,0.029432307466276307,0.0598702648858048,-0.06388607573481614,0.016284364506547643,0.03740563251339315,-0.016408602237838087,-0.06081571863842616,-0.11080901019978072,0.05163515575723106,0.05028210424995869,-0.04571203423458483,0.0038440286013546065,0.2584677095626693,-0.04678525814994667,0.07332450286223977,0.020129244735011178,-0.7201685415082045,-0.0846618446923812,0.03835488681892068,0.31358341463956807,0.10950325122984139,0.04159549466470204,0.2043112863506475,-0.026646904116474635
-0.1897234783611499,-0.20843717724973884,0.07568803968190006,0.08763880152754663,0.10030062948800023,0.026567053704893883,0.10153037510330133,0.11636048832781463,-0.0024961130439609515,0.04931349013893571,0.003094556014999307,0.02943230912151012,0.05990133405218031,-0.06385611126728494,0.016142148840530383,0.03727712675171518,-0.016520612549147363,-0.06082403963272155,-0.11091189568278069,0.05150665465317359,0.05012661825326401,-0.04586005730567167,0.003684636806826929,0.2589318550299709,-0.04678032841091463,0.07361272557196158,0.02007476342568335,-0.7218017888947321,-0.08495124286259438,0.03849429758782934,0.31414237462931494,0.10972957955634736,0.04160446824572476,0.20475827717696568,-0.026775405527141836
-0.19046461516414268,-0.20904284361467548,0.07599793115363508,0.08770872258163337,0.10029740675580463,0.026536360235490695,0.10156939990418538,0.11642738349469378,-0.0024620094000341406,0.04933464687691785,0.003164350161896955,0.02943231072584474,0.05993197243738709,-0.06382656424410688,0.016001631779314504,0.03715012391556616,-0.016631351283676016,-0.06083236843241348,-0.1110135587972657,0.05137965633142003,0.049973055417480934,-0.04600622064662788,0.0035272396059625776,0.25938994045500674,-0.04677576265842435,0.07389709887672434,0.020020873171677042,-0.7234128352277923,-0.08523659410378114,0.038631777289802924,0.3146938597993994,0.1099528132989614,0.04161308943827662,0.20519931495618493,-0.02690240414219868
-0.19119740280613273,-0.20964151569249612,0.07630348550048519,0.08777757595064219,0.10029420305580486,0.02650604811809395,0.10160785612657258,0.11649330690781823,-0.002428436505167844,0.049355521836382574,0.003233184698112686,0.029432312281463584,0.059962191192564095,-0.06379742382778913,0.01586277513508726,0.03702459097018025,-0.016740845459719742,-0.060840701459600514,-0.11111402683436884,0.05125412776334854,0.049821370769108086,-0.046150567904987325,0.003371789899625228,0.2598421195097563,-0.04677154457655311,0.07417772568336041,0.019967562148357702,-0.7250022410573338,-0.08551800352284977,0.0387673758792922,0.31523805925276827,0.11017303186367251,0.04162137285658132,0.2056345484620652,-0.02702793299100697
-0.19192201741148462,-0.21023334529784862,0.07660481592832556,0.08784539123753808,0.10029101858689754,0.026476108496956592,0.10164575914216209,0.1165582846032298,-0.0023953793901487857,0.049376122104933445,0.003301084250959437,0.02943231379043068,0.05999200106192618,-0.06376867957710616,0.01572554196067929,0.03690049593126342,-0.01684912126526196,-0.060849035359243325,-0.11121332620445046,0.051130036970473094,0.04967152084909772,-0.04629314125610036,0.0032182421876430327,0.2602885403235136,-0.046767658629448136,0.07445470503162471,0.019914818870708385,-0.7265705468710224,-0.08579557238367351,0.038901141488758825,0.31577515530115463,0.11039031177653831,0.04162933243310005,0.20606412118091666,-0.02715202405274294
-0.19263862973654194,-0.2108184794817722,0.07690203149424309,0.0879121969159113,0.10028785352179158,0.02644653281176631,0.10168312374520327,0.11662234164568172,-0.0023628236633979126,0.04939645451723195,0.003368072556504242,0.02943231525469854,0.0600214124014601,-0.06374032142886314,0.015589896496369911,0.03677780782061443,-0.016956204092194026,-0.060857366987460616,-0.11131148247473725,0.05100735298008668,0.04952346364655174,-0.04643398146820755,0.003066552498354562,0.2607293457308693,-0.046764090021594366,0.07472813226780689,0.019862632180015143,-0.728118274011296,-0.08606939828422973,0.039033120512344914,0.3163053237729182,0.11060472681531276,0.041636981452891464,0.20648817155115506,-0.027274708300758
-0.1933474053885171,-0.2113970607301282,0.07719523729665345,0.08797802038293367,0.10028470800853055,0.026417312784740677,0.1017199641792391,0.11668550217363062,-0.0023307554837901025,0.04941652566639093,0.0034341725001839863,0.02943231667611543,0.060050435196595434,-0.06371233968066112,0.015455804119573455,0.03665649662413911,-0.017062118568703637,-0.06086569340036695,-0.11140852040491901,0.050886045783295974,0.04937715853600566,-0.046573127963909416,0.0029166783219857083,0.2611646735068506,-0.046760824660201455,0.07499809920979787,0.01981099123126076,-0.729645925541482,-0.08633957532396781,0.03916335768495754,0.316828734304247,0.11081634813389657,0.04164433258615074,0.20690683318973258,-0.02739601574454754
-0.1940485050328049,-0.21196922715147262,0.07748453465510906,0.08804288800941701,0.10028158217194996,0.026388440408428308,0.10175629416240603,0.11674778944177565,-0.002299161534953581,0.04943634191475617,0.003499406155213153,0.029432318056432104,0.060079079078915985,-0.06368472497459954,0.015323231297217214,0.036536533252100045,-0.017166888589952738,-0.06087401184343233,-0.11150446398083788,0.05076608629529004,0.04923256621806857,-0.046710618878273116,0.0027685785476088505,0.2615946565899703,-0.04675784911959012,0.07526469430405695,0.019759885481178508,-0.7311539870643278,-0.0866061942620368,0.039291896157061426,0.3173455506147684,0.11102524438006722,0.04165139791903011,0.2073202351062917,-0.027515975469485556
-0.19474208458947906,-0.21253511265505767,0.07777002128044574,0.08810682518715578,0.10027847611507033,0.02635990793416929,0.10179212691137929,0.11680922586129937,-0.002268029000957045,0.04945590940411442,0.0035637948189236003,0.029432319397308008,0.06010735334197242,-0.06365746828185666,0.015192145540636217,0.03641788950145605,-0.017270537347157063,-0.06088231974134418,-0.11159933644639493,0.05064744631769724,0.04908964866320433,-0.046846491113798176,0.002622213403454316,0.2620194232938881,-0.046755150607465545,0.07552800277489953,0.019709304676921658,-0.7326429274960355,-0.08686934266695642,0.03941877756545167,0.3178559307685393,0.11123148180691153,0.04165818898283663,0.20772850190582595,-0.02763461567447062
-0.19542829541967427,-0.21309484711959994,0.07805179143586946,0.08816985637372354,0.10027538992042798,0.026331707861171887,0.10182747516404714,0.11686983303795345,-0.0022373455432991604,0.04947523406536338,0.0036273590471660607,0.02943232070031704,0.060135266956252584,-0.06363056088809292,0.015062515362823005,0.03630053802015668,-0.01737308735517101,-0.060890614688352614,-0.11169316033378911,0.05053009850289595,0.04894836905845557,-0.0469807803924466,0.0024775444003612627,0.26243909750833705,-0.04675271693297331,0.0757881067665015,0.01965923884530758,-0.7341131997986587,-0.08712910505827205,0.039544042100257915,0.31836002742131886,0.1114351243783525,0.04166471678169663,0.2081317539805724,-0.02775196370761793
-0.1961072845025016,-0.21364855655340437,0.07832993608954,0.08823200513487947,0.10027232365134472,0.026303832926165643,0.10186235120099042,0.11692963180812255,-0.0022070992791211655,0.04949432162767638,0.0036901186868936505,0.029432321966952887,0.06016282858336154,-0.06360399437962579,0.014934310237882739,0.036184452273267005,-0.017474560478673608,-0.06089889443908044,-0.11178595749219512,0.05041401632015433,0.048808691756926106,-0.04711352130492704,0.002334534278170804,0.26285379888992716,-0.046750536476439244,0.07604508547799436,0.01960967828259862,-0.7355652416735072,-0.0873855630406943,0.03966772856841363,0.3188579880549582,0.11163623386913443,0.04167099181877108,0.20853010769180896,-0.027868046100121936
-0.196779194603099,-0.2141963632463882,0.0786045430591701,0.08829329418473089,0.10026927735313798,0.026276276093594148,0.10189676686583961,0.11698864227298915,-0.002177278760568875,0.04951317762719269,0.003752092907039006,0.029432323198633974,0.06019004658945989,-0.0635777606303291,0.014807500562555004,0.03606960651080737,-0.017574977957044303,-0.06090715689977962,-0.11187774911497912,0.05029917402348405,0.048670582229851184,-0.047244747357408384,0.0021931469548785803,0.26326364304339933,-0.046748598160701184,0.07629901529200456,0.01956061354478487,-0.7369994762180098,-0.08763879543118802,0.039789874453806814,0.3193499551996865,0.11183486995960377,0.041677024121100706,0.2089236755421798,-0.0279828885984049
-0.1974441644323716,-0.2147383859145111,0.0788756971491209,0.0883537454237872,0.10026625105427338,0.026249030546313296,0.10193073358457563,0.11704688383091473,-0.002147872955235483,0.04953180741526163,0.0038133002277887696,0.02943232439670804,0.060216929058005284,-0.0635518517892128,0.014682057619673866,0.03595597573720122,-0.017674360428010655,-0.060915400120016464,-0.11196855576554329,0.05018554662110098,0.04853400702109694,-0.047374491015825096,0.0020533474783771813,0.26366874169386256,-0.04674689142394588,0.07654996989697092,0.019512035438336475,-0.7384163125483063,-0.08788887837944187,0.03991051597431371,0.31983606664501674,0.11203109032560035,0.041682823263155,0.20931256633912812,-0.028096516194658333
-0.19810232879893697,-0.21527473983707862,0.07914348028044248,0.0884133799750311,0.10026324476746117,0.02622208967676354,0.101964262383837,0.11710437520814367,-0.00211887122762122,0.04955021616626702,0.0038737585483518784,0.02943232556245642,0.06024348380183916,-0.06352626026864158,0.014557953543447077,0.03584353568223183,-0.017772727950143896,-0.060923622284767956,-0.1120583974018841,0.050073109846393946,0.048398933703942174,-0.04750278374792474,0.001915101980630937,0.2640692028505193,-0.04674540619396939,0.07679802040355732,0.019463935011395848,-0.7398161463896787,-0.08813588548211923,0.04002968813590259,0.320316455639944,0.11222495072375026,0.04168839838915515,0.20969688534997433,-0.02820895315587609
-0.19875381875375253,-0.21580553698735358,0.0794079716142762,0.08847221821812501,0.10026025849069842,0.026195447078586873,0.1019973639082911,0.1171611344879294,-0.0020902633215502593,0.04956840888505689,0.003933485173311394,0.029432326697097996,0.060269718374657555,-0.06350097873315515,0.014435161286443898,0.0357322627734161,-0.01787010002427292,-0.06093182170691246,-0.11214729339994274,0.04996184013030966,0.04826533084000526,-0.04762965606319709,0.0017783776341367458,0.26446513096234686,-0.04674413286378418,0.07704323545545919,0.01941630354538212,-0.7411993606367757,-0.08837988789126375,0.040147424783981984,0.32079125108306594,0.11241650507243346,0.041693758234236586,0.21007673444914063,-0.028320223051471187
-0.19939876172786727,-0.21633088615687826,0.07966924766900864,0.0885302798218617,0.10025729220825884,0.02616909653866135,0.10203004843712378,0.11721717913817568,-0.0020620393434891875,0.0495863904140011,0.003992496837643531,0.02943232780179288,0.06029564008190238,-0.0634760000888539,0.01431365458818889,0.03562213410971018,-0.017966495613881885,-0.06093999682009801,-0.11223526257582077,0.049851714575068706,0.04813316794018924,-0.04775513755081403,0.001643142610534852,0.2648566270661775,-0.04674306226850033,0.0772856813348887,0.019369132546982498,-0.7425663258854528,-0.08862095441720622,0.040263758652155784,0.32126057770321037,0.11260580552867928,0.0416989111445135,0.21045221225798658,-0.028430348779561413
-0.2000372816637079,-0.21685089307388156,0.0799273824315399,0.0885875837749615,0.10025434589163199,0.026143032029528047,0.10206232589969791,0.11727252603767938,-0.002034189746715038,0.04960416543969872,0.004050809730481805,0.02943232887764586,0.060321255991106944,-0.06345131747331732,0.014193407945266306,0.03551312743646755,-0.018061933164552228,-0.06094814617197193,-0.11232232320692845,0.04974271092913336,0.04800241542752659,-0.047879256915700365,0.0015093660412429245,0.26524378892759265,-0.04674218566341255,0.07752542206300712,0.019322413740506954,-0.7439174009379195,-0.08885915162629658,0.040378721408536454,0.3217245562311173,0.11279290256122623,0.041703865096103715,0.21082341427769133,-0.02853935259200306
-0.20066949914028095,-0.21736566051611822,0.08018244746300539,0.08864414841531196,0.10025141950041365,0.02611724770218689,0.10209420589042839,0.11732719150105544,-0.0020067053162842567,0.04962173849935502,0.00410843951769906,0.029432329925709596,0.06034657294172743,-0.06342692424602396,0.014074396582846399,0.035405221121576076,-0.018156430622505215,-0.060956268417756386,-0.1124084930521288,0.04963480756335356,0.047873044601813144,-0.048002042012847135,0.001377017979995467,0.2656267111750191,-0.04674149470322845,0.0777625194955595,0.01927613906058447,-0.7452529332827692,-0.08909454393376277,0.04049234369975788,0.3221833035626851,0.11297784501996759,0.04170862771316954,0.21119043301558538,-0.028647256118246235
-0.20129553149264473,-0.2178752884184647,0.0804345119992679,0.08869999145773863,0.10024851298314949,0.02609173787923982,0.10212569768291758,0.11738119130241989,-0.001979577154757088,0.04963911398684686,0.004165401363375296,0.02943233094698759,0.06037159755448973,-0.06340281397924441,0.013956596427551116,0.035298394132705586,-0.018250005452297432,-0.060964362314154086,-0.1124937893709359,0.04952798344822288,0.047745027605928525,-0.04812351987997095,0.0012460693671786283,0.266005485427395,-0.046740981422376836,0.07799703341395406,0.019230300645180748,-0.7465732595513599,-0.08932719369197736,0.04060465519281958,0.32263693291426143,0.1131606802019886,0.0417132062850269,0.21155335810531087,-0.02875408038808018
-0.2019154929259809,-0.21837987397557174,0.08068364304647656,0.08875513002039087,0.1002456262781336,0.026066497048360764,0.10215681024339306,0.1174345406979009,-0.001952796668634753,0.049656296158494144,0.004221709950214749,0.029432331942436978,0.06039633624027923,-0.06337898044938002,0.013839984081582244,0.035192626015601976,-0.018342674653717844,-0.06097242671356973,-0.11257822894182172,0.04942221813218049,0.04761833739374697,-0.04824371676861605,0.0011164919958578476,0.26638020041574895,-0.046740638216338656,0.0782290216120156,0.019184890828918617,-0.7478787059519159,-0.08955716127439553,0.0407156846148859,0.3230855539704221,0.11334145391438862,0.04171760778237212,0.21191227642116162,-0.02885984585333245
-0.20252949462457065,-0.2188795117398541,0.08092990547196975,0.08880958064982059,0.10024275931416375,0.026041519856073777,0.10218755224348613,0.11748725444704464,-0.0019263555554695005,0.04967328913855358,0.004277379498971575,0.02943233291297114,0.0604207952085994,-0.06335541762872249,0.013724536798040475,0.03508789687336877,-0.018434454777931604,-0.06098046055863249,-0.11266182807968267,0.04931749172090008,0.04749294769954893,-0.048362658173788785,9.882584794026206E-4,0.26675094209901784,-0.04674045782394587,0.07845853997863038,0.019139902136683897,-0.7491695886826254,-0.08978450515540966,0.040825459791155067,0.3235292730246599,0.11352021053406842,0.04172183887267345,0.21226727218693317,-0.028964572408581076
-0.20313764485596258,-0.21937429371507938,0.08117336209078173,0.08886335934482739,0.10023991201125533,0.026016801101821654,0.10221793207238819,0.1175393468331773,-0.0019002457916100733,0.04969009692445031,0.004332423786939676,0.029432333859462107,0.0604449804756232,-0.06333211967761046,0.013610232457368464,0.03498418734668069,-0.018525361942912877,-0.06098846287700574,-0.11274460265251263,0.04921378485751018,0.04736883300884988,-0.048480368862208315,8.613422206189639E-4,0.2671177937744084,-0.0467404333105967,0.07868564257648981,0.019095327277500553,-0.7504462143249301,-0.09000928198635054,0.040934007680906534,0.323968193113372,0.11369699306465185,0.04172590593477131,0.21261842707959003,-0.029068279410935247
-0.20374004907059706,-0.21986430944579902,0.08141407374799624,0.08891648157913863,0.10023708428131571,0.025992335732308657,0.10224795784841852,0.11759083168278124,-0.0018744596205474632,0.04970672339176171,0.004386856165558643,0.029432334782742844,0.060468897871860064,-0.06330908093696126,0.013497049544855588,0.03488147859487754,-0.018615411848205834,-0.060996432776470565,-0.11282656809732695,0.04911107870369445,0.047245968530567804,-0.04859687289925168,7.357173823060077E-4,0.2674808361825889,-0.0467405580523386,0.07891038171712836,0.019051159138660328,-0.7517088802181187,-0.09023154666785,0.04104135441182735,0.32440241414351656,0.11387184319070007,0.041729815072729555,0.21296582032803826,-0.02917098569893589
-0.20433680999713533,-0.220349646102849,0.08165209939717544,0.08896896232298859,0.1002342760287807,0.025968118836102064,0.10227763743003594,0.11764172238394015,-0.0018489895418279682,0.0497231722989669,0.0044406895771845626,0.029432335683609367,0.06049255304945938,-0.06328629592115703,0.013384967129146124,0.03477975227789023,-0.01870461978905053,-0.06100436944026999,-0.11290773943537843,0.04900935492162375,0.0471243301704565,-0.04871219367466605,6.11358859158534E-4,0.26784014760798364,-0.04674082572077256,0.07913280803244203,0.01900739078009283,-0.7529578748162669,-0.09045135241876656,0.04114752531271239,0.3248320330142805,0.11404480132936666,0.04173357212897699,0.21330952880727402,-0.02927270961062448
-0.20492802773372482,-0.22083038856513357,0.08188749617507796,0.08902081606365742,0.10023148715121472,0.0259441456384782,0.10230697842632475,0.11769203190390343,-0.0018238283005025896,0.049739447291974694,0.004493936571071321,0.029432336562822743,0.06051595148917065,-0.06326375931126578,0.013273964841696392,0.03467899053895407,-0.018793000669907835,-0.06101227212270152,-0.11298813128670383,0.048908595656674915,0.0470038945057358,-0.048826353927116296,4.8824225094228345E-4,0.26819580397442583,-0.046741230268735307,0.07935297054286379,0.018964015428963324,-0.7541934780285007,-0.09066875084186281,0.04125254494462715,0.32525714373308356,0.11421590667963312,0.041737182696777134,0.21364962712815883,-0.02937346900082503
-0.20551379983541723,-0.22130661949788988,0.0821203194728671,0.08907205682502632,0.10022871753987678,0.025920411496499655,0.10233598820698266,0.11774177280581836,-0.0017989688770836535,0.04975555190844178,0.0045466093186052785,0.02943233742111095,0.060539098506978604,-0.06324146594857939,0.013164022857129967,0.034579175988067,-0.018880569017415364,-0.061020140144945806,-0.11306775788403704,0.04880878352089435,0.04688463876085467,-0.048939375767631424,3.6634383687349426E-4,0.2685478789364084,-0.04674176591671794,0.07957091672236381,0.018921026474486013,-0.7554159615434966,-0.09088379198641103,0.04135643713061664,0.32567783752622165,0.11438519726925489,0.04174065213206146,0.21398618772306094,-0.029473281257681273
-0.20609422139794112,-0.22177841942761978,0.08235062300399786,0.08912269818620258,0.10022596708025334,0.025896911894311175,0.10236467391183812,0.11779095726467452,-0.0017744044779812926,0.049771489581892515,0.004598719627833496,0.02943233825917062,0.06056199926043104,-0.06321941082845117,0.013055121874443203,0.03448029168615347,-0.018967338992804266,-0.06102797289111995,-0.11314663308612218,0.04870990157716675,0.04676654078432705,-0.04905128070200962,2.4564055113843284E-4,0.26889644396616125,-0.04674242713998184,0.07978669256043305,0.01887841746294178,-0.7566255891390712,-0.09109652440789372,0.041459224984038236,0.32609420294443464,0.11455270999954104,0.04174398556465984,0.21431928092758257,-0.02957216331848853
-0.20666938513801847,-0.2222458668138629,0.08257845886896008,0.08917275329926402,0.10022323565256003,0.025873642438642482,0.10239304245992151,0.11783959708250287,-0.0017501285263940587,0.04978726364565064,0.004650278957323294,0.029432339077668682,0.06058465875467564,-0.06319758909441726,0.012947243099016513,0.03438232112989717,-0.019053324403804806,-0.06103576980454428,-0.11322477039045867,0.04861193332405246,0.046649579026583725,-0.04916208965223736,1.2610995949266694E-4,0.26924156843676983,-0.04674320865633494,0.08000034262120116,0.018836182092889783,-0.757822616977665,-0.09130699522495424,0.04156093093559222,0.3265063259636671,0.11471848068808235,0.041747187908960204,0.21464897505858313,-0.029670131684857024
-0.20723938147040216,-0.22270903811797452,0.08280387761704433,0.08922223490617044,0.10022052313221348,0.0258505988545071,0.10242110055811444,0.1178877037028693,-0.0017261346536294442,0.04980287733659295,0.004701298429388604,0.029432339877243894,0.060607081848221146,-0.06317599603258675,0.012840368225389432,0.03428524823720793,-0.019138538716066945,-0.06104353038421188,-0.11330218294550728,0.04851486268125872,0.04653373251878751,-0.04927182297697489,7.730236883542752E-6,0.26958331970153643,-0.04674410541453321,0.08021191009983179,0.018794314210563223,-0.7590072938884738,-0.0915152501737441,0.041661576759118864,0.3269142900812746,0.11488254410953665,0.04175026387402741,0.2149753364886933,-0.029767202437241253
-0.2078042985818005,-0.22316800786906035,0.08302692830528738,0.08927115535488583,0.10021782939027504,0.02582777698108697,0.10244885470939848,0.11793528822469973,-0.001702416690831518,0.0498183337987341,0.004751788842716475,0.0294323406585083,0.06062927325843763,-0.0631546270662861,0.012734479420760253,0.034189057333290376,-0.01922299506412044,-0.06105125418145075,-0.11337888356238555,0.04841867397571238,0.04641898085256177,-0.04938050049115716,-1.0951985395722556E-4,0.26992176316977634,-0.04674511258327423,0.08042143687633135,0.01875280780544009,-0.7601798616369313,-0.09172133365980457,0.04176118359622704,0.3273181764079115,0.11504493403457253,0.041753217973209855,0.21529842971750465,-0.029863391248867745
-0.20836422250184486,-0.22362284872721233,0.08324765855474466,0.0893195266147535,0.10021515429386754,0.02580517276779309,0.10247631122072527,0.11798236141547216,-0.0016789686610942124,0.04983363608665141,0.004801760684425093,0.02943234142204858,0.060651237566809235,-0.063133477750945,0.012629559309173324,0.03409373313728401,-0.01930670626189737,-0.06105894079676867,-0.11345488472607772,0.0483233519282038,0.0463053041605856,-0.049488141484755804,-2.2566098300074274E-4,0.27025696237922914,-0.046746225540751495,0.0806289635668994,0.018711657005980393,-0.7613405551822084,-0.09192528880761168,0.04185977197981524,0.32771806375532525,0.11520568326706812,0.041756054533261096,0.21561831743960735,-0.02995871339909171
-0.2089192371712458,-0.22407363154418058,0.08346611460422877,0.08936736029116304,0.1002124977065666,0.025782782270493267,0.10250347621052709,0.1180289337238085,-0.0016557847719400295,0.049848787168757805,0.004851224141582859,0.02943234216842734,0.06067297922395234,-0.06311254376921063,0.012525590956359398,0.033999260749446064,-0.019389684812838842,-0.06106658987687153,-0.11353019860618427,0.04822888164057328,0.04619268309801157,-0.04959476474074556,-3.407132725347949E-4,0.27058897906525603,-0.04674743986473958,0.0808345295729435,0.01867085607552178,-0.7624896029233534,-0.09212715750790619,0.04195736185654261,0.32811402872026624,0.11536482367965442,0.04175877770300174,0.21593506060963852,-0.030053183786211038
-0.20946942450727546,-0.22452042542160747,0.08368234136164453,0.08941466763954624,0.10020985948876769,0.02576060164789841,0.10253035561588651,0.11807501529149753,-0.001632859408145124,0.049863789930430724,0.004900189112216253,0.029432342898184284,0.06069450255441129,-0.06309182092627906,0.012422557855196454,0.033905625638850335,-0.019471942919606033,-0.061074201111846076,-0.11360483706723389,0.04813524858341334,0.046081098824664775,-0.049700388552315386,-4.546963159485142E-4,0.27091787322698424,-0.046748751323182305,0.08103817312787409,0.018630399408326125,-0.7636272269346559,-0.09232698046292323,0.04205397260830396,0.3285061457647122,0.11552238624768843,0.04176139146154608,0.21624871850449479,-0.03014681693976451
-0.21001486446670575,-0.22496329776694357,0.08389638245304425,0.08946145957873654,0.10020723949803051,0.02573862715809937,0.10255695519938299,0.11812061596497826,-0.0016101871248927844,0.049878647177004326,0.004948665215832724,0.029432343611837386,0.06071581176124294,-0.06307130514543216,0.012320443911760364,0.03381281363157674,-0.019553492493414693,-0.06108177423249852,-0.11367881167857907,0.048042438584261375,0.04597053298798411,-0.04980503073936237,-5.676291957293723E-4,0.27124370319055113,-0.04675015586525705,0.08123993134178928,0.018590281525770004,-0.764753643190791,-0.0925247972296291,0.042149623072759664,0.32889448729259413,0.1156784010817362,0.041763899626116326,0.21655934878285274,-0.0302396270323395
-0.21055563510632289,-0.22540231434715716,0.08410828026951889,0.08950774670372517,0.10020463758940142,0.025716855155246892,0.10258328055563261,0.11816574530631127,-0.0015877626412383753,0.04989336163663178,0.0049966618034832265,0.029432344309883927,0.06073691093040083,-0.06305099246377006,0.01221923343193657,0.03372081089936773,-0.019634345163011064,-0.061089309007841,-0.11375213372389617,0.04795043781625914,0.04586096770666919,-0.04990870866430433,-6.795305007116134E-4,0.2715665256695915,-0.046751649612890106,0.08143984024415424,0.01855049707267238,-0.7658690617822589,-0.09272064626106698,0.042244331562968654,0.32927912372319834,0.11583289745864112,0.04176630585946601,0.21686700754213342,-0.030331627890912878
-0.21109181264113308,-0.2258375393403435,0.0843180760120351,0.08955353929784458,0.10020205361571558,0.025695282086367503,0.1026093371175367,0.11821041260366418,-0.001565580833869762,0.04990793596302428,0.0050441879673876625,0.029432344992801503,0.06075780403492914,-0.06303087902812878,0.012118911108565642,0.03362960394872941,-0.01971451228330605,-0.06109680524271797,-0.11382481421030866,0.04785923278725664,0.04575238555499814,-0.05001143924724457,-7.904183426129932E-4,0.27188639582310586,-0.04675322885269934,0.08163793482457365,0.018511040813753356,-0.766973687121611,-0.09291456494590689,0.04233811588616941,0.32966012356141344,0.11598590385124859,0.04176861367693339,0.21717174937303863,-0.030422833007747518
-0.21162347150036748,-0.22626903538533266,0.08452580973432115,0.0895988473444086,0.10019948742787944,0.025673904488308783,0.10263513016225408,0.11825462688133595,-0.0015436367311481307,0.049922372738072866,0.00509125255014515,0.029432345661048985,0.060778494938975816,-0.06301096109117413,0.012019462009097077,0.03353917961045596,-0.01979400494368365,-0.06110426277556514,-0.11389686387715167,0.04776881032933927,0.04564476954778385,-0.0501132389805207,-9.003103718945638E-4,0.27220336731083655,-0.04675489002834148,0.08183424907175146,0.01847190763021803,-0.7680677181409221,-0.09310658964629051,0.042430993361751976,0.33003755346497654,0.11613744795685418,0.04177082645314392,0.21747362741177992,-0.030513255550865415
-0.21215068438138757,-0.22669686362939054,0.08473152038389943,0.08964368053783667,0.10019693887513519,0.02565271898480767,0.10266066481691075,0.11829839690934296,-0.0015219255074149732,0.04993667447435879,0.0051378641535498185,0.0294323463150674,0.06079898740163399,-0.06299123500766307,0.011920871563727228,0.03344952502955778,-0.01987283397599863,-0.061111681476294026,-0.11396829320439504,0.047679157588758424,0.04553810312593773,-0.05021412394266722,-0.0010092237929762926,0.27251749234627554,-0.046756629733242704,0.08202881601072647,0.01843309251646,-0.7691513484809446,-0.0932967557340556,0.04252298083846104,0.3304114783088683,0.11628755672443877,0.04177294742838056,0.21777269339011368,-0.030602908374117447
-0.21267352230158693,-0.22712108377410117,0.08493524584135759,0.08968804829428847,0.10019440780530749,0.025631722283675905,0.10268594606406022,0.11834173121258902,-0.001500442477551796,0.04995084361755802,0.005184031147031631,0.029432346955280787,0.060819285080620185,-0.06297169723086388,0.011823125553998594,0.03336062765557433,-0.019951009962277545,-0.06111906124429523,-0.11403911242074062,0.04759026201624673,0.045432370142612054,-0.05031410981182028,-0.0011171753788394494,0.27282882174741835,-0.04675844470369242,0.08222166773846867,0.0183945905768793,-0.7702247666723524,-0.09348509762542052,0.04261409471086821,0.33078196124699605,0.11643625638075011,0.04177497971463902,0.21806899768329047,-0.030691804026868396
-0.21319205464838,-0.22754175411951416,0.08513702295794517,0.08973195976183289,0.10019189406503429,0.02561091117409707,0.10271097874690689,0.11838463807963998,-0.0014791830917798517,0.049964882548744975,0.005229761675740697,0.029432347582096976,0.06083939153579724,-0.06295234430912773,0.01172621010183893,0.033272475233254065,-0.020028543242136612,-0.06112640200655428,-0.1141093315114091,0.047502111357700265,0.045327554849893335,-0.050413211878590936,-0.0012241814850449816,0.27313740498537326,-0.04676033181228112,0.08241283545791625,0.018356397022809754,-0.771288156309463,-0.09367164881420446,0.0427043509351493,0.3311490637712973,0.11658357245528791,0.041776926301384604,0.21836258935601952,-0.03077995476331502
-0.21370634922736395,-0.22795893160663622,0.08533688759157805,0.0897754238301752,0.10018939749998178,0.02559028252402989,0.10273576757430418,0.11842712557112214,-0.0014581429306879114,0.04997879358660034,0.005275063668292463,0.029432348195908356,0.060859310232549625,-0.06293317288260414,0.011630111659019894,0.033185055793584745,-0.020105443919928995,-0.06113370371587374,-0.11417896022563069,0.04741469364521091,0.0452236418860209,-0.0505114450584322,-0.0013302580631954766,0.27344329023092967,-0.046762288061664145,0.08260234951052876,0.018318507169551242,-0.7723416962168018,-0.09385644190365518,0.04279376504420062,0.3315128457683889,0.11672952980424507,0.04177879006102617,0.21865351620654414,-0.030867372551453946
-0.2142164723087334,-0.22837267185834148,0.08553487464132822,0.08981844913996385,0.10018691795504499,0.025569833277712884,0.10276031712553829,0.11846920152776363,-0.001437317700476731,0.049992578989527706,0.005319944844190262,0.029432348797092587,0.06087904454501825,-0.06291417968009312,0.011534816997015983,0.03309835764515817,-0.02018172187163347,-0.06114096634919609,-0.11424800808385296,0.04732799718843316,0.045120616263106074,-0.05060882390352348,-0.0014354206738668059,0.27374652439918395,-0.046764310578634415,0.08279023940742933,0.018280916433502315,-0.7733855606088527,-0.09403950863695153,0.042882352162126255,0.33187336557387836,0.116874152633456,0.04178057375412208,0.2189418248089192,-0.030954069081715104
-0.21472248867202584,-0.22878302921877172,0.08573101808047214,0.08986104409169783,0.1001844552745346,0.0255495604532656,0.10278463185490852,0.1185108735780953,-0.0014167032284095092,0.05000624095768326,0.005364412720940761,0.029432349386013256,0.060898597759201555,-0.06289536151602779,0.011440313197245621,0.03301236936585443,-0.020257386751495857,-0.0611481899060217,-0.11431648438467905,0.047242010566270205,0.045018463355328886,-0.050705362614194865,-0.0015396844990341239,0.274047153192314,-0.046766396608487686,0.08297653385920331,0.01824362032938911,-0.7744199192433219,-0.0942208799264452,0.04297012701812663,0.3322306800244518,0.11701746452039968,0.041782280034331785,0.2192275605535756,-0.031040055775275844
-0.21522446164926975,-0.22919005679129276,0.08592535098816739,0.08990321685425401,0.10018200930235081,0.025529461140382063,0.10280871609611365,0.11855214914582847,-0.0013962954584582,0.05001978163492277,0.005408474620877017,0.029432349963020545,0.06091797307592923,-0.06287671528758088,0.011346587641677171,0.03292707979483149,-0.020332447998433884,-0.06115537440691685,-0.11438439821154767,0.04715672261886536,0.04491716888759017,-0.05080107504991241,-0.0016430643540155663,0.27434522114059245,-0.04676854350966543,0.08316126080441885,0.018206614467586556,-0.7754449375682234,-0.09440058588170169,0.043057103959817086,0.33258484450784115,0.11715948843530237,0.04178391145312668,0.2195107676862533,-0.031125343792069732
-0.21572245316660396,-0.22959380647507105,0.0861179055798232,0.08994497537305311,0.10017957988214495,0.02550953249811214,0.10283257406645385,0.11859303545692457,-0.0013760904471360948,0.05003320311066972,0.0054521376777030795,0.0294323505284518,0.060937173613714785,-0.06285823797188946,0.011253628003783617,0.03284247802480668,-0.020406914842215598,-0.06116251989210681,-0.11445175843916733,0.047072122439885206,0.04481671892459852,-0.050895974739844405,-0.0017455746989557418,0.2746407716417202,-0.04677074874866047,0.08334444743693079,0.018169894551528166,-0.7764607768630747,-0.09457865583639763,0.04314329696600343,0.33293591301077297,0.1173002467613827,0.041785470464272424,0.21979148934537926,-0.03120994403850362
-0.21621652378443368,-0.22999432900033004,0.08630871323622677,0.08998632737788174,0.10017716685746973,0.025489771752726934,0.1028562098708572,0.11863353954637179,-0.00135608435950762,0.050046507421708325,0.005495408842773282,0.029432351082632126,0.060956202411492494,-0.0628399266233921,0.011161422239830472,0.032758553394617265,-0.020480796309421078,-0.06116962642014928,-0.11451857373971439,0.04698819936908183,0.044717099860372284,-0.050990074893027745,-0.0018472296498699553,0.27493384699856,-0.04677300989517188,0.08352612023202571,0.018133456375200828,-0.7774675943744819,-0.09475511837412913,0.04322871965894025,0.33328393816499224,0.1174397613142799,0.04178695942809462,0.22006976759796223,-0.031293867174895566
-0.21670673273618474,-0.2303916739623438,0.08649780453148462,0.09002728039038696,0.10017477007191851,0.025470176195664336,0.10287962750573894,0.1186736682646825,-0.0013362734653667666,0.050059696553904874,0.005538294891118704,0.029432351625874917,0.06097506243124423,-0.06282177837127337,0.01106995858048229,0.032675295482048186,-0.020554101229196466,-0.06117669406668401,-0.11458485258880649,0.046904942985122024,0.04461829840813791,-0.05108338840815222,-0.001948042989268977,0.2752244884553448,-0.046775324617496165,0.08370630497146406,0.01809729582072121,-0.7784655434463708,-0.09493000135318143,0.043313385316096256,0.33362897129145136,0.11757805336070283,0.04178838061553917,0.22034564347407465,-0.0313771236226458
-0.21719313796571552,-0.23078588985422138,0.08668520925983414,0.09006784173125938,0.10017238936925452,0.02545074318155127,0.10290283086270145,0.11871342828412469,-0.0013166541355760265,0.05007277244386084,0.0055808024272326175,0.02943235215848238,0.06099375656052138,-0.06280379041701045,0.010979225522713921,0.032592694096915405,-0.020626838238809068,-0.06118372292325402,-0.11465060327126012,0.0468223430986721,0.04452030159060712,-0.051175927882979755,-0.0020480281763831567,0.2755127362324319,-0.04677769067814245,0.08388502676747153,0.01806140885599062,-0.7794547736451157,-0.0951033319303093,0.04339730688144955,0.3339710624427492,0.11771514363633662,0.04178973621203772,0.22061915699998472,-0.03145972357115209
-0.21767579616344082,-0.23117702409853386,0.08687095646137882,0.09010801852711924,0.10017002459353051,0.025431470126299132,0.10292582373208282,0.11875282610470021,-0.001297222838558159,0.050085736980500756,0.005622937890626081,0.029432352680746,0.06101228761486662,-0.06278596003201738,0.010889211822013335,0.03251073927439395,-0.020699015789011732,-0.06119071309619489,-0.11471583388664221,0.04674038974572733,0.04442309673061597,-0.05126770562341493,-0.002147198357003699,0.2757986295596697,-0.04678010592966001,0.08406231008572954,0.01802579153242522,-0.7804354308797963,-0.09527513658357345,0.04348049697633474,0.33431026044390116,0.11785105236304079,0.041791028321188306,0.22089034723000198,-0.03154167698448049
-0.21815476280122242,-0.23156512307783217,0.08705507444679643,0.09014781771711965,0.10016767558919926,0.02541235450526932,0.10294860980636054,0.11879186805988129,-0.0012779761369334976,0.05009859200659801,0.00566470756116431,0.02943235319294703,0.06103065834014024,-0.06276828455538219,0.010799906484863531,0.03242942126858052,-0.020770642149224344,-0.061197664705587976,-0.11478055235462425,0.04665907318117579,0.044326671442110124,-0.05135873365224172,-0.002245566372958009,0.2760822067084419,-0.04678256831066729,0.08423817876741227,0.017990439982758743,-0.7814076575178043,-0.09544544113427657,0.04356296790986246,0.33464661293151526,0.11798579926537182,0.04179225896826074,0.22115925227709368,-0.031622993607801526
-0.21863009216607507,-0.23195023216410263,0.08723759082106806,0.09018724605928057,0.10016534220121573,0.0253933938515057,0.1029711926834178,0.1188305603221169,-0.0012589106842959073,0.05011133932024123,0.0057061175641938385,0.029432353695356912,0.06104887141475531,-0.0627507613916928,0.010711298761491688,0.03234873054628061,-0.02084172541253988,-0.06120457788427428,-0.11484476642014742,0.046578383872586795,0.04423101362146095,-0.05144902371754136,-0.0023431447712351445,0.2763635050224485,-0.04678507584207189,0.08441265605031488,0.017955350418914835,-0.7823715924960134,-0.09561427076804059,0.04364473168893089,0.334980166391449,0.11811940358646075,0.04179343010353563,0.22142590934232795,-0.031703682973602036
-0.2191018373927367,-0.2323323957472036,0.08741853250627285,0.09022631013656575,0.1001630242751314,0.025374585754031214,0.10299357586967811,0.11886890890811953,-0.00124002322212085,0.05012398067624403,0.005747173875470029,0.029432354188237697,0.061066929451825916,-0.06273338800894762,0.010623378138874253,0.032268657781011,-0.0209122735005621,-0.06121145277692549,-0.11490848365840631,0.04649831249421449,0.0441361114390983,-0.05153858730080481,-0.0024399458127766067,0.2766425609472826,-0.046787626623471884,0.08458576458911543,0.01792051912994653,-0.7833273714277088,-0.09578165005506374,0.04372580002784797,0.3353109661950134,0.11825188410327515,0.04179454360548548,0.22169035474319615,-0.03178375440768161
-0.21957005049514877,-0.23271165726232576,0.08759792576349082,0.09026501636271494,0.10016072165718096,0.0253559278562058,0.10301576278311482,0.11890691968394236,-0.0012213105767993704,0.0501365177875007,0.005787882325893954,0.029432354671842437,0.06108483500123232,-0.06271616193654694,0.010536134333987252,0.032189193847208634,-0.02098229416808166,-0.061218289539169024,-0.11497171147965939,0.04641884992120789,0.044041953331446344,-0.05162743562475314,-0.0025359814809469442,0.2769194100588559,-0.04679021882972895,0.08475752647481137,0.017885942480040246,-0.7842751267054653,-0.09594760296959515,0.043806184357581615,0.3356390566337904,0.11838325914129318,0.0417956012838061,0.22195262394086454,-0.0318632170349427
-0.22003478239688895,-0.23308805921651518,0.08777579621385449,0.09030337098784248,0.10015843419436199,0.025337417854143077,0.10303775675614105,0.11894459836985663,-0.0012027696567921292,0.05014895232629014,0.005828248606067218,0.029432355146415574,0.06110259055160687,-0.06269908076336164,0.010449557287291666,0.032110329814637545,-0.021051795007597008,-0.06122508833676409,-0.115034457133873,0.04633998722401885,0.04394852799314949,-0.05171557966087813,-0.0026312634896979007,0.2771940870907261,-0.046792850707704656,0.08492796325336846,0.017851616906581956,-0.7852149876001557,-0.09611215290866139,0.04388589583465502,0.33596448095312575,0.11851354658861622,0.04179660488230575,0.22221275156640183,-0.03194207978498277
